digraph Tree {
node [shape=box, style="filled, rounded", color="black", fontname=helvetica] ;
edge [fontname=helvetica] ;
0 [label=<Contract &le; 0.5<br/>gini = 0.391<br/>samples = 5625<br/>value = [4126, 1499]<br/>class = C>, fillcolor="#eeaf81"] ;
1 [label=<InternetService &le; 1.5<br/>gini = 0.489<br/>samples = 3118<br/>value = [1795, 1323]<br/>class = C>, fillcolor="#f8decb"] ;
0 -> 1 [labeldistance=2.5, labelangle=45, headlabel="True"] ;
2 [label=<tenure &le; 3.5<br/>gini = 0.392<br/>samples = 1376<br/>value = [1008, 368]<br/>class = C>, fillcolor="#eeaf81"] ;
1 -> 2 ;
3 [label=<InternetService &le; 0.5<br/>gini = 0.487<br/>samples = 459<br/>value = [266, 193]<br/>class = C>, fillcolor="#f8dcc9"] ;
2 -> 3 ;
4 [label=<TotalCharges &le; 21.025<br/>gini = 0.382<br/>samples = 179<br/>value = [133, 46]<br/>class = C>, fillcolor="#eead7d"] ;
3 -> 4 ;
5 [label=<PaperlessBilling &le; 0.5<br/>gini = 0.444<br/>samples = 114<br/>value = [76, 38]<br/>class = C>, fillcolor="#f2c09c"] ;
4 -> 5 ;
6 [label=<PaymentMethod &le; 1.5<br/>gini = 0.387<br/>samples = 84<br/>value = [62, 22]<br/>class = C>, fillcolor="#eeae7f"] ;
5 -> 6 ;
7 [label=<MonthlyCharges &le; 19.225<br/>gini = 0.424<br/>samples = 72<br/>value = [50, 22]<br/>class = C>, fillcolor="#f0b890"] ;
6 -> 7 ;
8 [label=<gini = 0.0<br/>samples = 7<br/>value = [7, 0]<br/>class = C>, fillcolor="#e58139"] ;
7 -> 8 ;
9 [label=<SeniorCitizen &le; 0.5<br/>gini = 0.448<br/>samples = 65<br/>value = [43, 22]<br/>class = C>, fillcolor="#f2c19e"] ;
7 -> 9 ;
10 [label=<MonthlyCharges &le; 20.475<br/>gini = 0.441<br/>samples = 64<br/>value = [43, 21]<br/>class = C>, fillcolor="#f2bf9a"] ;
9 -> 10 ;
11 [label=<gender &le; 0.5<br/>gini = 0.417<br/>samples = 54<br/>value = [38, 16]<br/>class = C>, fillcolor="#f0b68c"] ;
10 -> 11 ;
12 [label=<TotalCharges &le; 20.275<br/>gini = 0.461<br/>samples = 36<br/>value = [23, 13]<br/>class = C>, fillcolor="#f4c8a9"] ;
11 -> 12 ;
13 [label=<MonthlyCharges &le; 19.35<br/>gini = 0.487<br/>samples = 31<br/>value = [18, 13]<br/>class = C>, fillcolor="#f8dcc8"] ;
12 -> 13 ;
14 [label=<gini = 0.0<br/>samples = 1<br/>value = [0, 1]<br/>class = h>, fillcolor="#399de5"] ;
13 -> 14 ;
15 [label=<Dependents &le; 0.5<br/>gini = 0.48<br/>samples = 30<br/>value = [18, 12]<br/>class = C>, fillcolor="#f6d5bd"] ;
13 -> 15 ;
16 [label=<MonthlyCharges &le; 19.5<br/>gini = 0.497<br/>samples = 24<br/>value = [13, 11]<br/>class = C>, fillcolor="#fbece1"] ;
15 -> 16 ;
17 [label=<gini = 0.0<br/>samples = 2<br/>value = [2, 0]<br/>class = C>, fillcolor="#e58139"] ;
16 -> 17 ;
18 [label=<TotalCharges &le; 19.725<br/>gini = 0.5<br/>samples = 22<br/>value = [11, 11]<br/>class = C>, fillcolor="#ffffff"] ;
16 -> 18 ;
19 [label=<MonthlyCharges &le; 19.6<br/>gini = 0.375<br/>samples = 4<br/>value = [1, 3]<br/>class = h>, fillcolor="#7bbeee"] ;
18 -> 19 ;
20 [label=<gini = 0.5<br/>samples = 2<br/>value = [1, 1]<br/>class = C>, fillcolor="#ffffff"] ;
19 -> 20 ;
21 [label=<gini = 0.0<br/>samples = 2<br/>value = [0, 2]<br/>class = h>, fillcolor="#399de5"] ;
19 -> 21 ;
22 [label=<PaymentMethod &le; 0.5<br/>gini = 0.494<br/>samples = 18<br/>value = [10, 8]<br/>class = C>, fillcolor="#fae6d7"] ;
18 -> 22 ;
23 [label=<gini = 0.0<br/>samples = 1<br/>value = [0, 1]<br/>class = h>, fillcolor="#399de5"] ;
22 -> 23 ;
24 [label=<TotalCharges &le; 20.075<br/>gini = 0.484<br/>samples = 17<br/>value = [10, 7]<br/>class = C>, fillcolor="#f7d9c4"] ;
22 -> 24 ;
25 [label=<TotalCharges &le; 20.025<br/>gini = 0.375<br/>samples = 8<br/>value = [6, 2]<br/>class = C>, fillcolor="#eeab7b"] ;
24 -> 25 ;
26 [label=<TotalCharges &le; 19.85<br/>gini = 0.48<br/>samples = 5<br/>value = [3, 2]<br/>class = C>, fillcolor="#f6d5bd"] ;
25 -> 26 ;
27 [label=<gini = 0.5<br/>samples = 2<br/>value = [1, 1]<br/>class = C>, fillcolor="#ffffff"] ;
26 -> 27 ;
28 [label=<TotalCharges &le; 19.975<br/>gini = 0.444<br/>samples = 3<br/>value = [2, 1]<br/>class = C>, fillcolor="#f2c09c"] ;
26 -> 28 ;
29 [label=<gini = 0.0<br/>samples = 1<br/>value = [1, 0]<br/>class = C>, fillcolor="#e58139"] ;
28 -> 29 ;
30 [label=<gini = 0.5<br/>samples = 2<br/>value = [1, 1]<br/>class = C>, fillcolor="#ffffff"] ;
28 -> 30 ;
31 [label=<gini = 0.0<br/>samples = 3<br/>value = [3, 0]<br/>class = C>, fillcolor="#e58139"] ;
25 -> 31 ;
32 [label=<MonthlyCharges &le; 20.175<br/>gini = 0.494<br/>samples = 9<br/>value = [4, 5]<br/>class = h>, fillcolor="#d7ebfa"] ;
24 -> 32 ;
33 [label=<gini = 0.0<br/>samples = 3<br/>value = [0, 3]<br/>class = h>, fillcolor="#399de5"] ;
32 -> 33 ;
34 [label=<MonthlyCharges &le; 20.225<br/>gini = 0.444<br/>samples = 6<br/>value = [4, 2]<br/>class = C>, fillcolor="#f2c09c"] ;
32 -> 34 ;
35 [label=<gini = 0.375<br/>samples = 4<br/>value = [3, 1]<br/>class = C>, fillcolor="#eeab7b"] ;
34 -> 35 ;
36 [label=<gini = 0.5<br/>samples = 2<br/>value = [1, 1]<br/>class = C>, fillcolor="#ffffff"] ;
34 -> 36 ;
37 [label=<MonthlyCharges &le; 19.875<br/>gini = 0.278<br/>samples = 6<br/>value = [5, 1]<br/>class = C>, fillcolor="#ea9a61"] ;
15 -> 37 ;
38 [label=<gini = 0.0<br/>samples = 4<br/>value = [4, 0]<br/>class = C>, fillcolor="#e58139"] ;
37 -> 38 ;
39 [label=<Partner &le; 0.5<br/>gini = 0.5<br/>samples = 2<br/>value = [1, 1]<br/>class = C>, fillcolor="#ffffff"] ;
37 -> 39 ;
40 [label=<gini = 0.0<br/>samples = 1<br/>value = [1, 0]<br/>class = C>, fillcolor="#e58139"] ;
39 -> 40 ;
41 [label=<gini = 0.0<br/>samples = 1<br/>value = [0, 1]<br/>class = h>, fillcolor="#399de5"] ;
39 -> 41 ;
42 [label=<gini = 0.0<br/>samples = 5<br/>value = [5, 0]<br/>class = C>, fillcolor="#e58139"] ;
12 -> 42 ;
43 [label=<MonthlyCharges &le; 20.275<br/>gini = 0.278<br/>samples = 18<br/>value = [15, 3]<br/>class = C>, fillcolor="#ea9a61"] ;
11 -> 43 ;
44 [label=<TotalCharges &le; 19.475<br/>gini = 0.219<br/>samples = 16<br/>value = [14, 2]<br/>class = C>, fillcolor="#e99355"] ;
43 -> 44 ;
45 [label=<PaymentMethod &le; 0.5<br/>gini = 0.444<br/>samples = 3<br/>value = [2, 1]<br/>class = C>, fillcolor="#f2c09c"] ;
44 -> 45 ;
46 [label=<gini = 0.0<br/>samples = 2<br/>value = [2, 0]<br/>class = C>, fillcolor="#e58139"] ;
45 -> 46 ;
47 [label=<gini = 0.0<br/>samples = 1<br/>value = [0, 1]<br/>class = h>, fillcolor="#399de5"] ;
45 -> 47 ;
48 [label=<TotalCharges &le; 19.875<br/>gini = 0.142<br/>samples = 13<br/>value = [12, 1]<br/>class = C>, fillcolor="#e78c49"] ;
44 -> 48 ;
49 [label=<gini = 0.0<br/>samples = 7<br/>value = [7, 0]<br/>class = C>, fillcolor="#e58139"] ;
48 -> 49 ;
50 [label=<MonthlyCharges &le; 19.95<br/>gini = 0.278<br/>samples = 6<br/>value = [5, 1]<br/>class = C>, fillcolor="#ea9a61"] ;
48 -> 50 ;
51 [label=<gini = 0.444<br/>samples = 3<br/>value = [2, 1]<br/>class = C>, fillcolor="#f2c09c"] ;
50 -> 51 ;
52 [label=<gini = 0.0<br/>samples = 3<br/>value = [3, 0]<br/>class = C>, fillcolor="#e58139"] ;
50 -> 52 ;
53 [label=<gini = 0.5<br/>samples = 2<br/>value = [1, 1]<br/>class = C>, fillcolor="#ffffff"] ;
43 -> 53 ;
54 [label=<TotalCharges &le; 20.575<br/>gini = 0.5<br/>samples = 10<br/>value = [5, 5]<br/>class = C>, fillcolor="#ffffff"] ;
10 -> 54 ;
55 [label=<gini = 0.0<br/>samples = 4<br/>value = [0, 4]<br/>class = h>, fillcolor="#399de5"] ;
54 -> 55 ;
56 [label=<TotalCharges &le; 20.825<br/>gini = 0.278<br/>samples = 6<br/>value = [5, 1]<br/>class = C>, fillcolor="#ea9a61"] ;
54 -> 56 ;
57 [label=<gini = 0.0<br/>samples = 4<br/>value = [4, 0]<br/>class = C>, fillcolor="#e58139"] ;
56 -> 57 ;
58 [label=<gini = 0.5<br/>samples = 2<br/>value = [1, 1]<br/>class = C>, fillcolor="#ffffff"] ;
56 -> 58 ;
59 [label=<gini = 0.0<br/>samples = 1<br/>value = [0, 1]<br/>class = h>, fillcolor="#399de5"] ;
9 -> 59 ;
60 [label=<gini = 0.0<br/>samples = 12<br/>value = [12, 0]<br/>class = C>, fillcolor="#e58139"] ;
6 -> 60 ;
61 [label=<MonthlyCharges &le; 20.75<br/>gini = 0.498<br/>samples = 30<br/>value = [14, 16]<br/>class = h>, fillcolor="#e6f3fc"] ;
5 -> 61 ;
62 [label=<MonthlyCharges &le; 20.225<br/>gini = 0.5<br/>samples = 28<br/>value = [14, 14]<br/>class = C>, fillcolor="#ffffff"] ;
61 -> 62 ;
63 [label=<TotalCharges &le; 20.175<br/>gini = 0.486<br/>samples = 24<br/>value = [10, 14]<br/>class = h>, fillcolor="#c6e3f8"] ;
62 -> 63 ;
64 [label=<PaymentMethod &le; 1.5<br/>gini = 0.499<br/>samples = 19<br/>value = [10, 9]<br/>class = C>, fillcolor="#fcf2eb"] ;
63 -> 64 ;
65 [label=<MonthlyCharges &le; 20.075<br/>gini = 0.492<br/>samples = 16<br/>value = [7, 9]<br/>class = h>, fillcolor="#d3e9f9"] ;
64 -> 65 ;
66 [label=<TotalCharges &le; 18.925<br/>gini = 0.5<br/>samples = 14<br/>value = [7, 7]<br/>class = C>, fillcolor="#ffffff"] ;
65 -> 66 ;
67 [label=<gini = 0.0<br/>samples = 1<br/>value = [0, 1]<br/>class = h>, fillcolor="#399de5"] ;
66 -> 67 ;
68 [label=<PaymentMethod &le; 0.5<br/>gini = 0.497<br/>samples = 13<br/>value = [7, 6]<br/>class = C>, fillcolor="#fbede3"] ;
66 -> 68 ;
69 [label=<gini = 0.0<br/>samples = 1<br/>value = [0, 1]<br/>class = h>, fillcolor="#399de5"] ;
68 -> 69 ;
70 [label=<gender &le; 0.5<br/>gini = 0.486<br/>samples = 12<br/>value = [7, 5]<br/>class = C>, fillcolor="#f8dbc6"] ;
68 -> 70 ;
71 [label=<TotalCharges &le; 19.675<br/>gini = 0.408<br/>samples = 7<br/>value = [5, 2]<br/>class = C>, fillcolor="#efb388"] ;
70 -> 71 ;
72 [label=<TotalCharges &le; 19.325<br/>gini = 0.5<br/>samples = 4<br/>value = [2, 2]<br/>class = C>, fillcolor="#ffffff"] ;
71 -> 72 ;
73 [label=<gini = 0.0<br/>samples = 1<br/>value = [1, 0]<br/>class = C>, fillcolor="#e58139"] ;
72 -> 73 ;
74 [label=<TotalCharges &le; 19.475<br/>gini = 0.444<br/>samples = 3<br/>value = [1, 2]<br/>class = h>, fillcolor="#9ccef2"] ;
72 -> 74 ;
75 [label=<gini = 0.0<br/>samples = 1<br/>value = [0, 1]<br/>class = h>, fillcolor="#399de5"] ;
74 -> 75 ;
76 [label=<MonthlyCharges &le; 19.55<br/>gini = 0.5<br/>samples = 2<br/>value = [1, 1]<br/>class = C>, fillcolor="#ffffff"] ;
74 -> 76 ;
77 [label=<gini = 0.0<br/>samples = 1<br/>value = [1, 0]<br/>class = C>, fillcolor="#e58139"] ;
76 -> 77 ;
78 [label=<gini = 0.0<br/>samples = 1<br/>value = [0, 1]<br/>class = h>, fillcolor="#399de5"] ;
76 -> 78 ;
79 [label=<gini = 0.0<br/>samples = 3<br/>value = [3, 0]<br/>class = C>, fillcolor="#e58139"] ;
71 -> 79 ;
80 [label=<TotalCharges &le; 19.575<br/>gini = 0.48<br/>samples = 5<br/>value = [2, 3]<br/>class = h>, fillcolor="#bddef6"] ;
70 -> 80 ;
81 [label=<Partner &le; 0.5<br/>gini = 0.444<br/>samples = 3<br/>value = [2, 1]<br/>class = C>, fillcolor="#f2c09c"] ;
80 -> 81 ;
82 [label=<TotalCharges &le; 19.325<br/>gini = 0.5<br/>samples = 2<br/>value = [1, 1]<br/>class = C>, fillcolor="#ffffff"] ;
81 -> 82 ;
83 [label=<gini = 0.0<br/>samples = 1<br/>value = [0, 1]<br/>class = h>, fillcolor="#399de5"] ;
82 -> 83 ;
84 [label=<gini = 0.0<br/>samples = 1<br/>value = [1, 0]<br/>class = C>, fillcolor="#e58139"] ;
82 -> 84 ;
85 [label=<gini = 0.0<br/>samples = 1<br/>value = [1, 0]<br/>class = C>, fillcolor="#e58139"] ;
81 -> 85 ;
86 [label=<gini = 0.0<br/>samples = 2<br/>value = [0, 2]<br/>class = h>, fillcolor="#399de5"] ;
80 -> 86 ;
87 [label=<gini = 0.0<br/>samples = 2<br/>value = [0, 2]<br/>class = h>, fillcolor="#399de5"] ;
65 -> 87 ;
88 [label=<gini = 0.0<br/>samples = 3<br/>value = [3, 0]<br/>class = C>, fillcolor="#e58139"] ;
64 -> 88 ;
89 [label=<gini = 0.0<br/>samples = 5<br/>value = [0, 5]<br/>class = h>, fillcolor="#399de5"] ;
63 -> 89 ;
90 [label=<gini = 0.0<br/>samples = 4<br/>value = [4, 0]<br/>class = C>, fillcolor="#e58139"] ;
62 -> 90 ;
91 [label=<gini = 0.0<br/>samples = 2<br/>value = [0, 2]<br/>class = h>, fillcolor="#399de5"] ;
61 -> 91 ;
92 [label=<MonthlyCharges &le; 19.875<br/>gini = 0.216<br/>samples = 65<br/>value = [57, 8]<br/>class = C>, fillcolor="#e99355"] ;
4 -> 92 ;
93 [label=<TotalCharges &le; 57.675<br/>gini = 0.386<br/>samples = 23<br/>value = [17, 6]<br/>class = C>, fillcolor="#eead7f"] ;
92 -> 93 ;
94 [label=<PaymentMethod &le; 0.5<br/>gini = 0.124<br/>samples = 15<br/>value = [14, 1]<br/>class = C>, fillcolor="#e78a47"] ;
93 -> 94 ;
95 [label=<gini = 0.0<br/>samples = 1<br/>value = [0, 1]<br/>class = h>, fillcolor="#399de5"] ;
94 -> 95 ;
96 [label=<gini = 0.0<br/>samples = 14<br/>value = [14, 0]<br/>class = C>, fillcolor="#e58139"] ;
94 -> 96 ;
97 [label=<MonthlyCharges &le; 19.7<br/>gini = 0.469<br/>samples = 8<br/>value = [3, 5]<br/>class = h>, fillcolor="#b0d8f5"] ;
93 -> 97 ;
98 [label=<TotalCharges &le; 60.2<br/>gini = 0.375<br/>samples = 4<br/>value = [3, 1]<br/>class = C>, fillcolor="#eeab7b"] ;
97 -> 98 ;
99 [label=<gini = 0.0<br/>samples = 1<br/>value = [0, 1]<br/>class = h>, fillcolor="#399de5"] ;
98 -> 99 ;
100 [label=<gini = 0.0<br/>samples = 3<br/>value = [3, 0]<br/>class = C>, fillcolor="#e58139"] ;
98 -> 100 ;
101 [label=<gini = 0.0<br/>samples = 4<br/>value = [0, 4]<br/>class = h>, fillcolor="#399de5"] ;
97 -> 101 ;
102 [label=<TotalCharges &le; 38.975<br/>gini = 0.091<br/>samples = 42<br/>value = [40, 2]<br/>class = C>, fillcolor="#e68743"] ;
92 -> 102 ;
103 [label=<TotalCharges &le; 38.425<br/>gini = 0.219<br/>samples = 16<br/>value = [14, 2]<br/>class = C>, fillcolor="#e99355"] ;
102 -> 103 ;
104 [label=<TotalCharges &le; 32.95<br/>gini = 0.124<br/>samples = 15<br/>value = [14, 1]<br/>class = C>, fillcolor="#e78a47"] ;
103 -> 104 ;
105 [label=<gini = 0.0<br/>samples = 7<br/>value = [7, 0]<br/>class = C>, fillcolor="#e58139"] ;
104 -> 105 ;
106 [label=<TotalCharges &le; 33.4<br/>gini = 0.219<br/>samples = 8<br/>value = [7, 1]<br/>class = C>, fillcolor="#e99355"] ;
104 -> 106 ;
107 [label=<gini = 0.0<br/>samples = 1<br/>value = [0, 1]<br/>class = h>, fillcolor="#399de5"] ;
106 -> 107 ;
108 [label=<gini = 0.0<br/>samples = 7<br/>value = [7, 0]<br/>class = C>, fillcolor="#e58139"] ;
106 -> 108 ;
109 [label=<gini = 0.0<br/>samples = 1<br/>value = [0, 1]<br/>class = h>, fillcolor="#399de5"] ;
103 -> 109 ;
110 [label=<gini = 0.0<br/>samples = 26<br/>value = [26, 0]<br/>class = C>, fillcolor="#e58139"] ;
102 -> 110 ;
111 [label=<SeniorCitizen &le; 0.5<br/>gini = 0.499<br/>samples = 280<br/>value = [133, 147]<br/>class = h>, fillcolor="#ecf6fd"] ;
3 -> 111 ;
112 [label=<TotalCharges &le; 196.525<br/>gini = 0.5<br/>samples = 248<br/>value = [127, 121]<br/>class = C>, fillcolor="#fef9f6"] ;
111 -> 112 ;
113 [label=<PaperlessBilling &le; 0.5<br/>gini = 0.5<br/>samples = 242<br/>value = [121, 121]<br/>class = C>, fillcolor="#ffffff"] ;
112 -> 113 ;
114 [label=<Partner &le; 0.5<br/>gini = 0.488<br/>samples = 109<br/>value = [63, 46]<br/>class = C>, fillcolor="#f8ddca"] ;
113 -> 114 ;
115 [label=<OnlineSecurity &le; 0.5<br/>gini = 0.477<br/>samples = 97<br/>value = [59, 38]<br/>class = C>, fillcolor="#f6d2b9"] ;
114 -> 115 ;
116 [label=<gender &le; 0.5<br/>gini = 0.493<br/>samples = 82<br/>value = [46, 36]<br/>class = C>, fillcolor="#f9e4d4"] ;
115 -> 116 ;
117 [label=<TotalCharges &le; 44.825<br/>gini = 0.496<br/>samples = 44<br/>value = [20, 24]<br/>class = h>, fillcolor="#deeffb"] ;
116 -> 117 ;
118 [label=<TotalCharges &le; 25.075<br/>gini = 0.397<br/>samples = 11<br/>value = [8, 3]<br/>class = C>, fillcolor="#efb083"] ;
117 -> 118 ;
119 [label=<gini = 0.0<br/>samples = 1<br/>value = [0, 1]<br/>class = h>, fillcolor="#399de5"] ;
118 -> 119 ;
120 [label=<StreamingMovies &le; 0.5<br/>gini = 0.32<br/>samples = 10<br/>value = [8, 2]<br/>class = C>, fillcolor="#eca06a"] ;
118 -> 120 ;
121 [label=<TotalCharges &le; 44.2<br/>gini = 0.198<br/>samples = 9<br/>value = [8, 1]<br/>class = C>, fillcolor="#e89152"] ;
120 -> 121 ;
122 [label=<gini = 0.0<br/>samples = 6<br/>value = [6, 0]<br/>class = C>, fillcolor="#e58139"] ;
121 -> 122 ;
123 [label=<MonthlyCharges &le; 44.425<br/>gini = 0.444<br/>samples = 3<br/>value = [2, 1]<br/>class = C>, fillcolor="#f2c09c"] ;
121 -> 123 ;
124 [label=<gini = 0.0<br/>samples = 1<br/>value = [0, 1]<br/>class = h>, fillcolor="#399de5"] ;
123 -> 124 ;
125 [label=<gini = 0.0<br/>samples = 2<br/>value = [2, 0]<br/>class = C>, fillcolor="#e58139"] ;
123 -> 125 ;
126 [label=<gini = 0.0<br/>samples = 1<br/>value = [0, 1]<br/>class = h>, fillcolor="#399de5"] ;
120 -> 126 ;
127 [label=<TotalCharges &le; 48.975<br/>gini = 0.463<br/>samples = 33<br/>value = [12, 21]<br/>class = h>, fillcolor="#aad5f4"] ;
117 -> 127 ;
128 [label=<gini = 0.0<br/>samples = 6<br/>value = [0, 6]<br/>class = h>, fillcolor="#399de5"] ;
127 -> 128 ;
129 [label=<TotalCharges &le; 49.85<br/>gini = 0.494<br/>samples = 27<br/>value = [12, 15]<br/>class = h>, fillcolor="#d7ebfa"] ;
127 -> 129 ;
130 [label=<gini = 0.0<br/>samples = 2<br/>value = [2, 0]<br/>class = C>, fillcolor="#e58139"] ;
129 -> 130 ;
131 [label=<TotalCharges &le; 81.7<br/>gini = 0.48<br/>samples = 25<br/>value = [10, 15]<br/>class = h>, fillcolor="#bddef6"] ;
129 -> 131 ;
132 [label=<StreamingMovies &le; 0.5<br/>gini = 0.391<br/>samples = 15<br/>value = [4, 11]<br/>class = h>, fillcolor="#81c1ee"] ;
131 -> 132 ;
133 [label=<MultipleLines &le; 0.5<br/>gini = 0.337<br/>samples = 14<br/>value = [3, 11]<br/>class = h>, fillcolor="#6fb8ec"] ;
132 -> 133 ;
134 [label=<MonthlyCharges &le; 27.475<br/>gini = 0.18<br/>samples = 10<br/>value = [1, 9]<br/>class = h>, fillcolor="#4fa8e8"] ;
133 -> 134 ;
135 [label=<MonthlyCharges &le; 24.925<br/>gini = 0.5<br/>samples = 2<br/>value = [1, 1]<br/>class = C>, fillcolor="#ffffff"] ;
134 -> 135 ;
136 [label=<gini = 0.0<br/>samples = 1<br/>value = [0, 1]<br/>class = h>, fillcolor="#399de5"] ;
135 -> 136 ;
137 [label=<gini = 0.0<br/>samples = 1<br/>value = [1, 0]<br/>class = C>, fillcolor="#e58139"] ;
135 -> 137 ;
138 [label=<gini = 0.0<br/>samples = 8<br/>value = [0, 8]<br/>class = h>, fillcolor="#399de5"] ;
134 -> 138 ;
139 [label=<TotalCharges &le; 57.2<br/>gini = 0.5<br/>samples = 4<br/>value = [2, 2]<br/>class = C>, fillcolor="#ffffff"] ;
133 -> 139 ;
140 [label=<gini = 0.0<br/>samples = 2<br/>value = [2, 0]<br/>class = C>, fillcolor="#e58139"] ;
139 -> 140 ;
141 [label=<gini = 0.0<br/>samples = 2<br/>value = [0, 2]<br/>class = h>, fillcolor="#399de5"] ;
139 -> 141 ;
142 [label=<gini = 0.0<br/>samples = 1<br/>value = [1, 0]<br/>class = C>, fillcolor="#e58139"] ;
132 -> 142 ;
143 [label=<MonthlyCharges &le; 51.9<br/>gini = 0.48<br/>samples = 10<br/>value = [6, 4]<br/>class = C>, fillcolor="#f6d5bd"] ;
131 -> 143 ;
144 [label=<tenure &le; 2.5<br/>gini = 0.32<br/>samples = 5<br/>value = [4, 1]<br/>class = C>, fillcolor="#eca06a"] ;
143 -> 144 ;
145 [label=<MonthlyCharges &le; 45.125<br/>gini = 0.5<br/>samples = 2<br/>value = [1, 1]<br/>class = C>, fillcolor="#ffffff"] ;
144 -> 145 ;
146 [label=<gini = 0.0<br/>samples = 1<br/>value = [1, 0]<br/>class = C>, fillcolor="#e58139"] ;
145 -> 146 ;
147 [label=<gini = 0.0<br/>samples = 1<br/>value = [0, 1]<br/>class = h>, fillcolor="#399de5"] ;
145 -> 147 ;
148 [label=<gini = 0.0<br/>samples = 3<br/>value = [3, 0]<br/>class = C>, fillcolor="#e58139"] ;
144 -> 148 ;
149 [label=<StreamingMovies &le; 0.5<br/>gini = 0.48<br/>samples = 5<br/>value = [2, 3]<br/>class = h>, fillcolor="#bddef6"] ;
143 -> 149 ;
150 [label=<gini = 0.0<br/>samples = 2<br/>value = [0, 2]<br/>class = h>, fillcolor="#399de5"] ;
149 -> 150 ;
151 [label=<PaymentMethod &le; 1.5<br/>gini = 0.444<br/>samples = 3<br/>value = [2, 1]<br/>class = C>, fillcolor="#f2c09c"] ;
149 -> 151 ;
152 [label=<gini = 0.0<br/>samples = 2<br/>value = [2, 0]<br/>class = C>, fillcolor="#e58139"] ;
151 -> 152 ;
153 [label=<gini = 0.0<br/>samples = 1<br/>value = [0, 1]<br/>class = h>, fillcolor="#399de5"] ;
151 -> 153 ;
154 [label=<TotalCharges &le; 71.8<br/>gini = 0.432<br/>samples = 38<br/>value = [26, 12]<br/>class = C>, fillcolor="#f1bb94"] ;
116 -> 154 ;
155 [label=<StreamingMovies &le; 0.5<br/>gini = 0.48<br/>samples = 25<br/>value = [15, 10]<br/>class = C>, fillcolor="#f6d5bd"] ;
154 -> 155 ;
156 [label=<TotalCharges &le; 54.425<br/>gini = 0.454<br/>samples = 23<br/>value = [15, 8]<br/>class = C>, fillcolor="#f3c4a3"] ;
155 -> 156 ;
157 [label=<TotalCharges &le; 46.175<br/>gini = 0.434<br/>samples = 22<br/>value = [15, 7]<br/>class = C>, fillcolor="#f1bc95"] ;
156 -> 157 ;
158 [label=<TotalCharges &le; 45.55<br/>gini = 0.465<br/>samples = 19<br/>value = [12, 7]<br/>class = C>, fillcolor="#f4caac"] ;
157 -> 158 ;
159 [label=<OnlineBackup &le; 0.5<br/>gini = 0.415<br/>samples = 17<br/>value = [12, 5]<br/>class = C>, fillcolor="#f0b58b"] ;
158 -> 159 ;
160 [label=<TotalCharges &le; 25.225<br/>gini = 0.375<br/>samples = 16<br/>value = [12, 4]<br/>class = C>, fillcolor="#eeab7b"] ;
159 -> 160 ;
161 [label=<MonthlyCharges &le; 24.5<br/>gini = 0.5<br/>samples = 4<br/>value = [2, 2]<br/>class = C>, fillcolor="#ffffff"] ;
160 -> 161 ;
162 [label=<gini = 0.0<br/>samples = 1<br/>value = [1, 0]<br/>class = C>, fillcolor="#e58139"] ;
161 -> 162 ;
163 [label=<Dependents &le; 0.5<br/>gini = 0.444<br/>samples = 3<br/>value = [1, 2]<br/>class = h>, fillcolor="#9ccef2"] ;
161 -> 163 ;
164 [label=<gini = 0.0<br/>samples = 2<br/>value = [0, 2]<br/>class = h>, fillcolor="#399de5"] ;
163 -> 164 ;
165 [label=<gini = 0.0<br/>samples = 1<br/>value = [1, 0]<br/>class = C>, fillcolor="#e58139"] ;
163 -> 165 ;
166 [label=<TotalCharges &le; 43.875<br/>gini = 0.278<br/>samples = 12<br/>value = [10, 2]<br/>class = C>, fillcolor="#ea9a61"] ;
160 -> 166 ;
167 [label=<gini = 0.0<br/>samples = 5<br/>value = [5, 0]<br/>class = C>, fillcolor="#e58139"] ;
166 -> 167 ;
168 [label=<TotalCharges &le; 44.575<br/>gini = 0.408<br/>samples = 7<br/>value = [5, 2]<br/>class = C>, fillcolor="#efb388"] ;
166 -> 168 ;
169 [label=<PaymentMethod &le; 1.5<br/>gini = 0.5<br/>samples = 4<br/>value = [2, 2]<br/>class = C>, fillcolor="#ffffff"] ;
168 -> 169 ;
170 [label=<gini = 0.0<br/>samples = 2<br/>value = [0, 2]<br/>class = h>, fillcolor="#399de5"] ;
169 -> 170 ;
171 [label=<gini = 0.0<br/>samples = 2<br/>value = [2, 0]<br/>class = C>, fillcolor="#e58139"] ;
169 -> 171 ;
172 [label=<gini = 0.0<br/>samples = 3<br/>value = [3, 0]<br/>class = C>, fillcolor="#e58139"] ;
168 -> 172 ;
173 [label=<gini = 0.0<br/>samples = 1<br/>value = [0, 1]<br/>class = h>, fillcolor="#399de5"] ;
159 -> 173 ;
174 [label=<gini = 0.0<br/>samples = 2<br/>value = [0, 2]<br/>class = h>, fillcolor="#399de5"] ;
158 -> 174 ;
175 [label=<gini = 0.0<br/>samples = 3<br/>value = [3, 0]<br/>class = C>, fillcolor="#e58139"] ;
157 -> 175 ;
176 [label=<gini = 0.0<br/>samples = 1<br/>value = [0, 1]<br/>class = h>, fillcolor="#399de5"] ;
156 -> 176 ;
177 [label=<gini = 0.0<br/>samples = 2<br/>value = [0, 2]<br/>class = h>, fillcolor="#399de5"] ;
155 -> 177 ;
178 [label=<MonthlyCharges &le; 70.5<br/>gini = 0.26<br/>samples = 13<br/>value = [11, 2]<br/>class = C>, fillcolor="#ea985d"] ;
154 -> 178 ;
179 [label=<PaymentMethod &le; 2.0<br/>gini = 0.153<br/>samples = 12<br/>value = [11, 1]<br/>class = C>, fillcolor="#e78c4b"] ;
178 -> 179 ;
180 [label=<gini = 0.0<br/>samples = 11<br/>value = [11, 0]<br/>class = C>, fillcolor="#e58139"] ;
179 -> 180 ;
181 [label=<gini = 0.0<br/>samples = 1<br/>value = [0, 1]<br/>class = h>, fillcolor="#399de5"] ;
179 -> 181 ;
182 [label=<gini = 0.0<br/>samples = 1<br/>value = [0, 1]<br/>class = h>, fillcolor="#399de5"] ;
178 -> 182 ;
183 [label=<TotalCharges &le; 161.375<br/>gini = 0.231<br/>samples = 15<br/>value = [13, 2]<br/>class = C>, fillcolor="#e99457"] ;
115 -> 183 ;
184 [label=<Dependents &le; 0.5<br/>gini = 0.133<br/>samples = 14<br/>value = [13, 1]<br/>class = C>, fillcolor="#e78b48"] ;
183 -> 184 ;
185 [label=<gini = 0.0<br/>samples = 9<br/>value = [9, 0]<br/>class = C>, fillcolor="#e58139"] ;
184 -> 185 ;
186 [label=<TotalCharges &le; 50.9<br/>gini = 0.32<br/>samples = 5<br/>value = [4, 1]<br/>class = C>, fillcolor="#eca06a"] ;
184 -> 186 ;
187 [label=<gini = 0.0<br/>samples = 1<br/>value = [0, 1]<br/>class = h>, fillcolor="#399de5"] ;
186 -> 187 ;
188 [label=<gini = 0.0<br/>samples = 4<br/>value = [4, 0]<br/>class = C>, fillcolor="#e58139"] ;
186 -> 188 ;
189 [label=<gini = 0.0<br/>samples = 1<br/>value = [0, 1]<br/>class = h>, fillcolor="#399de5"] ;
183 -> 189 ;
190 [label=<TotalCharges &le; 94.8<br/>gini = 0.444<br/>samples = 12<br/>value = [4, 8]<br/>class = h>, fillcolor="#9ccef2"] ;
114 -> 190 ;
191 [label=<StreamingMovies &le; 0.5<br/>gini = 0.5<br/>samples = 8<br/>value = [4, 4]<br/>class = C>, fillcolor="#ffffff"] ;
190 -> 191 ;
192 [label=<MonthlyCharges &le; 29.375<br/>gini = 0.444<br/>samples = 6<br/>value = [2, 4]<br/>class = h>, fillcolor="#9ccef2"] ;
191 -> 192 ;
193 [label=<gini = 0.0<br/>samples = 1<br/>value = [1, 0]<br/>class = C>, fillcolor="#e58139"] ;
192 -> 193 ;
194 [label=<MonthlyCharges &le; 42.325<br/>gini = 0.32<br/>samples = 5<br/>value = [1, 4]<br/>class = h>, fillcolor="#6ab6ec"] ;
192 -> 194 ;
195 [label=<gini = 0.0<br/>samples = 3<br/>value = [0, 3]<br/>class = h>, fillcolor="#399de5"] ;
194 -> 195 ;
196 [label=<Dependents &le; 0.5<br/>gini = 0.5<br/>samples = 2<br/>value = [1, 1]<br/>class = C>, fillcolor="#ffffff"] ;
194 -> 196 ;
197 [label=<gini = 0.0<br/>samples = 1<br/>value = [0, 1]<br/>class = h>, fillcolor="#399de5"] ;
196 -> 197 ;
198 [label=<gini = 0.0<br/>samples = 1<br/>value = [1, 0]<br/>class = C>, fillcolor="#e58139"] ;
196 -> 198 ;
199 [label=<gini = 0.0<br/>samples = 2<br/>value = [2, 0]<br/>class = C>, fillcolor="#e58139"] ;
191 -> 199 ;
200 [label=<gini = 0.0<br/>samples = 4<br/>value = [0, 4]<br/>class = h>, fillcolor="#399de5"] ;
190 -> 200 ;
201 [label=<MonthlyCharges &le; 55.175<br/>gini = 0.492<br/>samples = 133<br/>value = [58, 75]<br/>class = h>, fillcolor="#d2e9f9"] ;
113 -> 201 ;
202 [label=<StreamingMovies &le; 0.5<br/>gini = 0.482<br/>samples = 111<br/>value = [45, 66]<br/>class = h>, fillcolor="#c0e0f7"] ;
201 -> 202 ;
203 [label=<MonthlyCharges &le; 50.575<br/>gini = 0.493<br/>samples = 102<br/>value = [45, 57]<br/>class = h>, fillcolor="#d5eafa"] ;
202 -> 203 ;
204 [label=<DeviceProtection &le; 0.5<br/>gini = 0.5<br/>samples = 86<br/>value = [42, 44]<br/>class = h>, fillcolor="#f6fbfe"] ;
203 -> 204 ;
205 [label=<MonthlyCharges &le; 50.125<br/>gini = 0.5<br/>samples = 80<br/>value = [41, 39]<br/>class = C>, fillcolor="#fef9f5"] ;
204 -> 205 ;
206 [label=<TotalCharges &le; 106.075<br/>gini = 0.499<br/>samples = 74<br/>value = [35, 39]<br/>class = h>, fillcolor="#ebf5fc"] ;
205 -> 206 ;
207 [label=<TotalCharges &le; 48.675<br/>gini = 0.5<br/>samples = 70<br/>value = [35, 35]<br/>class = C>, fillcolor="#ffffff"] ;
206 -> 207 ;
208 [label=<MonthlyCharges &le; 45.025<br/>gini = 0.493<br/>samples = 43<br/>value = [19, 24]<br/>class = h>, fillcolor="#d6ebfa"] ;
207 -> 208 ;
209 [label=<TotalCharges &le; 44.475<br/>gini = 0.488<br/>samples = 26<br/>value = [15, 11]<br/>class = C>, fillcolor="#f8ddca"] ;
208 -> 209 ;
210 [label=<TotalCharges &le; 44.325<br/>gini = 0.499<br/>samples = 19<br/>value = [9, 10]<br/>class = h>, fillcolor="#ebf5fc"] ;
209 -> 210 ;
211 [label=<TotalCharges &le; 43.375<br/>gini = 0.498<br/>samples = 17<br/>value = [9, 8]<br/>class = C>, fillcolor="#fcf1e9"] ;
210 -> 211 ;
212 [label=<TotalCharges &le; 30.6<br/>gini = 0.486<br/>samples = 12<br/>value = [5, 7]<br/>class = h>, fillcolor="#c6e3f8"] ;
211 -> 212 ;
213 [label=<MonthlyCharges &le; 23.925<br/>gini = 0.494<br/>samples = 9<br/>value = [5, 4]<br/>class = C>, fillcolor="#fae6d7"] ;
212 -> 213 ;
214 [label=<gini = 0.0<br/>samples = 1<br/>value = [0, 1]<br/>class = h>, fillcolor="#399de5"] ;
213 -> 214 ;
215 [label=<Dependents &le; 0.5<br/>gini = 0.469<br/>samples = 8<br/>value = [5, 3]<br/>class = C>, fillcolor="#f5cdb0"] ;
213 -> 215 ;
216 [label=<gender &le; 0.5<br/>gini = 0.49<br/>samples = 7<br/>value = [4, 3]<br/>class = C>, fillcolor="#f8e0ce"] ;
215 -> 216 ;
217 [label=<MonthlyCharges &le; 24.425<br/>gini = 0.444<br/>samples = 3<br/>value = [1, 2]<br/>class = h>, fillcolor="#9ccef2"] ;
216 -> 217 ;
218 [label=<gini = 0.0<br/>samples = 1<br/>value = [1, 0]<br/>class = C>, fillcolor="#e58139"] ;
217 -> 218 ;
219 [label=<gini = 0.0<br/>samples = 2<br/>value = [0, 2]<br/>class = h>, fillcolor="#399de5"] ;
217 -> 219 ;
220 [label=<TotalCharges &le; 25.125<br/>gini = 0.375<br/>samples = 4<br/>value = [3, 1]<br/>class = C>, fillcolor="#eeab7b"] ;
216 -> 220 ;
221 [label=<MonthlyCharges &le; 25.0<br/>gini = 0.5<br/>samples = 2<br/>value = [1, 1]<br/>class = C>, fillcolor="#ffffff"] ;
220 -> 221 ;
222 [label=<gini = 0.0<br/>samples = 1<br/>value = [1, 0]<br/>class = C>, fillcolor="#e58139"] ;
221 -> 222 ;
223 [label=<gini = 0.0<br/>samples = 1<br/>value = [0, 1]<br/>class = h>, fillcolor="#399de5"] ;
221 -> 223 ;
224 [label=<gini = 0.0<br/>samples = 2<br/>value = [2, 0]<br/>class = C>, fillcolor="#e58139"] ;
220 -> 224 ;
225 [label=<gini = 0.0<br/>samples = 1<br/>value = [1, 0]<br/>class = C>, fillcolor="#e58139"] ;
215 -> 225 ;
226 [label=<gini = 0.0<br/>samples = 3<br/>value = [0, 3]<br/>class = h>, fillcolor="#399de5"] ;
212 -> 226 ;
227 [label=<PaymentMethod &le; 0.5<br/>gini = 0.32<br/>samples = 5<br/>value = [4, 1]<br/>class = C>, fillcolor="#eca06a"] ;
211 -> 227 ;
228 [label=<gini = 0.0<br/>samples = 1<br/>value = [0, 1]<br/>class = h>, fillcolor="#399de5"] ;
227 -> 228 ;
229 [label=<gini = 0.0<br/>samples = 4<br/>value = [4, 0]<br/>class = C>, fillcolor="#e58139"] ;
227 -> 229 ;
230 [label=<gini = 0.0<br/>samples = 2<br/>value = [0, 2]<br/>class = h>, fillcolor="#399de5"] ;
210 -> 230 ;
231 [label=<PaymentMethod &le; 1.5<br/>gini = 0.245<br/>samples = 7<br/>value = [6, 1]<br/>class = C>, fillcolor="#e9965a"] ;
209 -> 231 ;
232 [label=<gini = 0.0<br/>samples = 5<br/>value = [5, 0]<br/>class = C>, fillcolor="#e58139"] ;
231 -> 232 ;
233 [label=<PaymentMethod &le; 2.5<br/>gini = 0.5<br/>samples = 2<br/>value = [1, 1]<br/>class = C>, fillcolor="#ffffff"] ;
231 -> 233 ;
234 [label=<gini = 0.0<br/>samples = 1<br/>value = [0, 1]<br/>class = h>, fillcolor="#399de5"] ;
233 -> 234 ;
235 [label=<gini = 0.0<br/>samples = 1<br/>value = [1, 0]<br/>class = C>, fillcolor="#e58139"] ;
233 -> 235 ;
236 [label=<TotalCharges &le; 45.75<br/>gini = 0.36<br/>samples = 17<br/>value = [4, 13]<br/>class = h>, fillcolor="#76bbed"] ;
208 -> 236 ;
237 [label=<MonthlyCharges &le; 45.5<br/>gini = 0.165<br/>samples = 11<br/>value = [1, 10]<br/>class = h>, fillcolor="#4da7e8"] ;
236 -> 237 ;
238 [label=<TotalCharges &le; 45.35<br/>gini = 0.32<br/>samples = 5<br/>value = [1, 4]<br/>class = h>, fillcolor="#6ab6ec"] ;
237 -> 238 ;
239 [label=<gini = 0.0<br/>samples = 3<br/>value = [0, 3]<br/>class = h>, fillcolor="#399de5"] ;
238 -> 239 ;
240 [label=<gini = 0.5<br/>samples = 2<br/>value = [1, 1]<br/>class = C>, fillcolor="#ffffff"] ;
238 -> 240 ;
241 [label=<gini = 0.0<br/>samples = 6<br/>value = [0, 6]<br/>class = h>, fillcolor="#399de5"] ;
237 -> 241 ;
242 [label=<Partner &le; 0.5<br/>gini = 0.5<br/>samples = 6<br/>value = [3, 3]<br/>class = C>, fillcolor="#ffffff"] ;
236 -> 242 ;
243 [label=<TotalCharges &le; 48.5<br/>gini = 0.48<br/>samples = 5<br/>value = [3, 2]<br/>class = C>, fillcolor="#f6d5bd"] ;
242 -> 243 ;
244 [label=<gini = 0.0<br/>samples = 2<br/>value = [2, 0]<br/>class = C>, fillcolor="#e58139"] ;
243 -> 244 ;
245 [label=<PaymentMethod &le; 0.5<br/>gini = 0.444<br/>samples = 3<br/>value = [1, 2]<br/>class = h>, fillcolor="#9ccef2"] ;
243 -> 245 ;
246 [label=<gini = 0.0<br/>samples = 1<br/>value = [1, 0]<br/>class = C>, fillcolor="#e58139"] ;
245 -> 246 ;
247 [label=<gini = 0.0<br/>samples = 2<br/>value = [0, 2]<br/>class = h>, fillcolor="#399de5"] ;
245 -> 247 ;
248 [label=<gini = 0.0<br/>samples = 1<br/>value = [0, 1]<br/>class = h>, fillcolor="#399de5"] ;
242 -> 248 ;
249 [label=<TotalCharges &le; 49.85<br/>gini = 0.483<br/>samples = 27<br/>value = [16, 11]<br/>class = C>, fillcolor="#f7d8c1"] ;
207 -> 249 ;
250 [label=<gini = 0.0<br/>samples = 5<br/>value = [5, 0]<br/>class = C>, fillcolor="#e58139"] ;
249 -> 250 ;
251 [label=<PaymentMethod &le; 2.5<br/>gini = 0.5<br/>samples = 22<br/>value = [11, 11]<br/>class = C>, fillcolor="#ffffff"] ;
249 -> 251 ;
252 [label=<MonthlyCharges &le; 29.675<br/>gini = 0.488<br/>samples = 19<br/>value = [11, 8]<br/>class = C>, fillcolor="#f8ddc9"] ;
251 -> 252 ;
253 [label=<gini = 0.0<br/>samples = 2<br/>value = [0, 2]<br/>class = h>, fillcolor="#399de5"] ;
252 -> 253 ;
254 [label=<PaymentMethod &le; 0.5<br/>gini = 0.457<br/>samples = 17<br/>value = [11, 6]<br/>class = C>, fillcolor="#f3c6a5"] ;
252 -> 254 ;
255 [label=<TotalCharges &le; 97.675<br/>gini = 0.219<br/>samples = 8<br/>value = [7, 1]<br/>class = C>, fillcolor="#e99355"] ;
254 -> 255 ;
256 [label=<gini = 0.0<br/>samples = 7<br/>value = [7, 0]<br/>class = C>, fillcolor="#e58139"] ;
255 -> 256 ;
257 [label=<gini = 0.0<br/>samples = 1<br/>value = [0, 1]<br/>class = h>, fillcolor="#399de5"] ;
255 -> 257 ;
258 [label=<MonthlyCharges &le; 48.25<br/>gini = 0.494<br/>samples = 9<br/>value = [4, 5]<br/>class = h>, fillcolor="#d7ebfa"] ;
254 -> 258 ;
259 [label=<TotalCharges &le; 91.475<br/>gini = 0.444<br/>samples = 6<br/>value = [4, 2]<br/>class = C>, fillcolor="#f2c09c"] ;
258 -> 259 ;
260 [label=<gini = 0.0<br/>samples = 3<br/>value = [3, 0]<br/>class = C>, fillcolor="#e58139"] ;
259 -> 260 ;
261 [label=<MonthlyCharges &le; 45.425<br/>gini = 0.444<br/>samples = 3<br/>value = [1, 2]<br/>class = h>, fillcolor="#9ccef2"] ;
259 -> 261 ;
262 [label=<gini = 0.0<br/>samples = 2<br/>value = [0, 2]<br/>class = h>, fillcolor="#399de5"] ;
261 -> 262 ;
263 [label=<gini = 0.0<br/>samples = 1<br/>value = [1, 0]<br/>class = C>, fillcolor="#e58139"] ;
261 -> 263 ;
264 [label=<gini = 0.0<br/>samples = 3<br/>value = [0, 3]<br/>class = h>, fillcolor="#399de5"] ;
258 -> 264 ;
265 [label=<gini = 0.0<br/>samples = 3<br/>value = [0, 3]<br/>class = h>, fillcolor="#399de5"] ;
251 -> 265 ;
266 [label=<gini = 0.0<br/>samples = 4<br/>value = [0, 4]<br/>class = h>, fillcolor="#399de5"] ;
206 -> 266 ;
267 [label=<gini = 0.0<br/>samples = 6<br/>value = [6, 0]<br/>class = C>, fillcolor="#e58139"] ;
205 -> 267 ;
268 [label=<TotalCharges &le; 50.15<br/>gini = 0.278<br/>samples = 6<br/>value = [1, 5]<br/>class = h>, fillcolor="#61b1ea"] ;
204 -> 268 ;
269 [label=<PaymentMethod &le; 0.5<br/>gini = 0.5<br/>samples = 2<br/>value = [1, 1]<br/>class = C>, fillcolor="#ffffff"] ;
268 -> 269 ;
270 [label=<gini = 0.0<br/>samples = 1<br/>value = [1, 0]<br/>class = C>, fillcolor="#e58139"] ;
269 -> 270 ;
271 [label=<gini = 0.0<br/>samples = 1<br/>value = [0, 1]<br/>class = h>, fillcolor="#399de5"] ;
269 -> 271 ;
272 [label=<gini = 0.0<br/>samples = 4<br/>value = [0, 4]<br/>class = h>, fillcolor="#399de5"] ;
268 -> 272 ;
273 [label=<Partner &le; 0.5<br/>gini = 0.305<br/>samples = 16<br/>value = [3, 13]<br/>class = h>, fillcolor="#67b4eb"] ;
203 -> 273 ;
274 [label=<TechSupport &le; 0.5<br/>gini = 0.231<br/>samples = 15<br/>value = [2, 13]<br/>class = h>, fillcolor="#57ace9"] ;
273 -> 274 ;
275 [label=<gini = 0.0<br/>samples = 10<br/>value = [0, 10]<br/>class = h>, fillcolor="#399de5"] ;
274 -> 275 ;
276 [label=<tenure &le; 1.5<br/>gini = 0.48<br/>samples = 5<br/>value = [2, 3]<br/>class = h>, fillcolor="#bddef6"] ;
274 -> 276 ;
277 [label=<gini = 0.0<br/>samples = 2<br/>value = [0, 2]<br/>class = h>, fillcolor="#399de5"] ;
276 -> 277 ;
278 [label=<MonthlyCharges &le; 54.75<br/>gini = 0.444<br/>samples = 3<br/>value = [2, 1]<br/>class = C>, fillcolor="#f2c09c"] ;
276 -> 278 ;
279 [label=<gini = 0.0<br/>samples = 2<br/>value = [2, 0]<br/>class = C>, fillcolor="#e58139"] ;
278 -> 279 ;
280 [label=<gini = 0.0<br/>samples = 1<br/>value = [0, 1]<br/>class = h>, fillcolor="#399de5"] ;
278 -> 280 ;
281 [label=<gini = 0.0<br/>samples = 1<br/>value = [1, 0]<br/>class = C>, fillcolor="#e58139"] ;
273 -> 281 ;
282 [label=<gini = 0.0<br/>samples = 9<br/>value = [0, 9]<br/>class = h>, fillcolor="#399de5"] ;
202 -> 282 ;
283 [label=<PaymentMethod &le; 0.5<br/>gini = 0.483<br/>samples = 22<br/>value = [13, 9]<br/>class = C>, fillcolor="#f7d8c2"] ;
201 -> 283 ;
284 [label=<TotalCharges &le; 55.85<br/>gini = 0.473<br/>samples = 13<br/>value = [5, 8]<br/>class = h>, fillcolor="#b5daf5"] ;
283 -> 284 ;
285 [label=<gini = 0.0<br/>samples = 2<br/>value = [2, 0]<br/>class = C>, fillcolor="#e58139"] ;
284 -> 285 ;
286 [label=<MonthlyCharges &le; 73.125<br/>gini = 0.397<br/>samples = 11<br/>value = [3, 8]<br/>class = h>, fillcolor="#83c2ef"] ;
284 -> 286 ;
287 [label=<StreamingMovies &le; 0.5<br/>gini = 0.32<br/>samples = 10<br/>value = [2, 8]<br/>class = h>, fillcolor="#6ab6ec"] ;
286 -> 287 ;
288 [label=<TotalCharges &le; 87.075<br/>gini = 0.48<br/>samples = 5<br/>value = [2, 3]<br/>class = h>, fillcolor="#bddef6"] ;
287 -> 288 ;
289 [label=<gini = 0.0<br/>samples = 2<br/>value = [0, 2]<br/>class = h>, fillcolor="#399de5"] ;
288 -> 289 ;
290 [label=<TechSupport &le; 0.5<br/>gini = 0.444<br/>samples = 3<br/>value = [2, 1]<br/>class = C>, fillcolor="#f2c09c"] ;
288 -> 290 ;
291 [label=<gini = 0.0<br/>samples = 2<br/>value = [2, 0]<br/>class = C>, fillcolor="#e58139"] ;
290 -> 291 ;
292 [label=<gini = 0.0<br/>samples = 1<br/>value = [0, 1]<br/>class = h>, fillcolor="#399de5"] ;
290 -> 292 ;
293 [label=<gini = 0.0<br/>samples = 5<br/>value = [0, 5]<br/>class = h>, fillcolor="#399de5"] ;
287 -> 293 ;
294 [label=<gini = 0.0<br/>samples = 1<br/>value = [1, 0]<br/>class = C>, fillcolor="#e58139"] ;
286 -> 294 ;
295 [label=<MonthlyCharges &le; 55.75<br/>gini = 0.198<br/>samples = 9<br/>value = [8, 1]<br/>class = C>, fillcolor="#e89152"] ;
283 -> 295 ;
296 [label=<MonthlyCharges &le; 55.5<br/>gini = 0.5<br/>samples = 2<br/>value = [1, 1]<br/>class = C>, fillcolor="#ffffff"] ;
295 -> 296 ;
297 [label=<gini = 0.0<br/>samples = 1<br/>value = [1, 0]<br/>class = C>, fillcolor="#e58139"] ;
296 -> 297 ;
298 [label=<gini = 0.0<br/>samples = 1<br/>value = [0, 1]<br/>class = h>, fillcolor="#399de5"] ;
296 -> 298 ;
299 [label=<gini = 0.0<br/>samples = 7<br/>value = [7, 0]<br/>class = C>, fillcolor="#e58139"] ;
295 -> 299 ;
300 [label=<gini = 0.0<br/>samples = 6<br/>value = [6, 0]<br/>class = C>, fillcolor="#e58139"] ;
112 -> 300 ;
301 [label=<MonthlyCharges &le; 43.625<br/>gini = 0.305<br/>samples = 32<br/>value = [6, 26]<br/>class = h>, fillcolor="#67b4eb"] ;
111 -> 301 ;
302 [label=<gini = 0.0<br/>samples = 14<br/>value = [0, 14]<br/>class = h>, fillcolor="#399de5"] ;
301 -> 302 ;
303 [label=<TotalCharges &le; 45.925<br/>gini = 0.444<br/>samples = 18<br/>value = [6, 12]<br/>class = h>, fillcolor="#9ccef2"] ;
301 -> 303 ;
304 [label=<gini = 0.0<br/>samples = 3<br/>value = [3, 0]<br/>class = C>, fillcolor="#e58139"] ;
303 -> 304 ;
305 [label=<MonthlyCharges &le; 44.625<br/>gini = 0.32<br/>samples = 15<br/>value = [3, 12]<br/>class = h>, fillcolor="#6ab6ec"] ;
303 -> 305 ;
306 [label=<gender &le; 0.5<br/>gini = 0.444<br/>samples = 3<br/>value = [2, 1]<br/>class = C>, fillcolor="#f2c09c"] ;
305 -> 306 ;
307 [label=<gini = 0.0<br/>samples = 1<br/>value = [0, 1]<br/>class = h>, fillcolor="#399de5"] ;
306 -> 307 ;
308 [label=<gini = 0.0<br/>samples = 2<br/>value = [2, 0]<br/>class = C>, fillcolor="#e58139"] ;
306 -> 308 ;
309 [label=<MonthlyCharges &le; 56.175<br/>gini = 0.153<br/>samples = 12<br/>value = [1, 11]<br/>class = h>, fillcolor="#4ba6e7"] ;
305 -> 309 ;
310 [label=<gini = 0.0<br/>samples = 11<br/>value = [0, 11]<br/>class = h>, fillcolor="#399de5"] ;
309 -> 310 ;
311 [label=<gini = 0.0<br/>samples = 1<br/>value = [1, 0]<br/>class = C>, fillcolor="#e58139"] ;
309 -> 311 ;
312 [label=<PaymentMethod &le; 0.5<br/>gini = 0.309<br/>samples = 917<br/>value = [742, 175]<br/>class = C>, fillcolor="#eb9f68"] ;
2 -> 312 ;
313 [label=<tenure &le; 22.5<br/>gini = 0.404<br/>samples = 281<br/>value = [202, 79]<br/>class = C>, fillcolor="#efb286"] ;
312 -> 313 ;
314 [label=<MonthlyCharges &le; 59.425<br/>gini = 0.455<br/>samples = 177<br/>value = [115, 62]<br/>class = C>, fillcolor="#f3c5a4"] ;
313 -> 314 ;
315 [label=<gender &le; 0.5<br/>gini = 0.479<br/>samples = 141<br/>value = [85, 56]<br/>class = C>, fillcolor="#f6d4bb"] ;
314 -> 315 ;
316 [label=<MonthlyCharges &le; 27.875<br/>gini = 0.5<br/>samples = 61<br/>value = [30, 31]<br/>class = h>, fillcolor="#f9fcfe"] ;
315 -> 316 ;
317 [label=<MonthlyCharges &le; 19.575<br/>gini = 0.346<br/>samples = 18<br/>value = [14, 4]<br/>class = C>, fillcolor="#eca572"] ;
316 -> 317 ;
318 [label=<MonthlyCharges &le; 19.125<br/>gini = 0.444<br/>samples = 3<br/>value = [1, 2]<br/>class = h>, fillcolor="#9ccef2"] ;
317 -> 318 ;
319 [label=<gini = 0.0<br/>samples = 1<br/>value = [1, 0]<br/>class = C>, fillcolor="#e58139"] ;
318 -> 319 ;
320 [label=<gini = 0.0<br/>samples = 2<br/>value = [0, 2]<br/>class = h>, fillcolor="#399de5"] ;
318 -> 320 ;
321 [label=<Partner &le; 0.5<br/>gini = 0.231<br/>samples = 15<br/>value = [13, 2]<br/>class = C>, fillcolor="#e99457"] ;
317 -> 321 ;
322 [label=<gini = 0.0<br/>samples = 9<br/>value = [9, 0]<br/>class = C>, fillcolor="#e58139"] ;
321 -> 322 ;
323 [label=<TotalCharges &le; 297.05<br/>gini = 0.444<br/>samples = 6<br/>value = [4, 2]<br/>class = C>, fillcolor="#f2c09c"] ;
321 -> 323 ;
324 [label=<InternetService &le; 0.5<br/>gini = 0.444<br/>samples = 3<br/>value = [1, 2]<br/>class = h>, fillcolor="#9ccef2"] ;
323 -> 324 ;
325 [label=<MonthlyCharges &le; 20.225<br/>gini = 0.5<br/>samples = 2<br/>value = [1, 1]<br/>class = C>, fillcolor="#ffffff"] ;
324 -> 325 ;
326 [label=<gini = 0.0<br/>samples = 1<br/>value = [0, 1]<br/>class = h>, fillcolor="#399de5"] ;
325 -> 326 ;
327 [label=<gini = 0.0<br/>samples = 1<br/>value = [1, 0]<br/>class = C>, fillcolor="#e58139"] ;
325 -> 327 ;
328 [label=<gini = 0.0<br/>samples = 1<br/>value = [0, 1]<br/>class = h>, fillcolor="#399de5"] ;
324 -> 328 ;
329 [label=<gini = 0.0<br/>samples = 3<br/>value = [3, 0]<br/>class = C>, fillcolor="#e58139"] ;
323 -> 329 ;
330 [label=<TotalCharges &le; 168.375<br/>gini = 0.467<br/>samples = 43<br/>value = [16, 27]<br/>class = h>, fillcolor="#aed7f4"] ;
316 -> 330 ;
331 [label=<gini = 0.0<br/>samples = 3<br/>value = [3, 0]<br/>class = C>, fillcolor="#e58139"] ;
330 -> 331 ;
332 [label=<MonthlyCharges &le; 45.725<br/>gini = 0.439<br/>samples = 40<br/>value = [13, 27]<br/>class = h>, fillcolor="#98ccf2"] ;
330 -> 332 ;
333 [label=<OnlineBackup &le; 0.5<br/>gini = 0.142<br/>samples = 13<br/>value = [1, 12]<br/>class = h>, fillcolor="#49a5e7"] ;
332 -> 333 ;
334 [label=<gini = 0.0<br/>samples = 11<br/>value = [0, 11]<br/>class = h>, fillcolor="#399de5"] ;
333 -> 334 ;
335 [label=<MonthlyCharges &le; 32.85<br/>gini = 0.5<br/>samples = 2<br/>value = [1, 1]<br/>class = C>, fillcolor="#ffffff"] ;
333 -> 335 ;
336 [label=<gini = 0.0<br/>samples = 1<br/>value = [0, 1]<br/>class = h>, fillcolor="#399de5"] ;
335 -> 336 ;
337 [label=<gini = 0.0<br/>samples = 1<br/>value = [1, 0]<br/>class = C>, fillcolor="#e58139"] ;
335 -> 337 ;
338 [label=<PaperlessBilling &le; 0.5<br/>gini = 0.494<br/>samples = 27<br/>value = [12, 15]<br/>class = h>, fillcolor="#d7ebfa"] ;
332 -> 338 ;
339 [label=<TechSupport &le; 0.5<br/>gini = 0.278<br/>samples = 12<br/>value = [2, 10]<br/>class = h>, fillcolor="#61b1ea"] ;
338 -> 339 ;
340 [label=<tenure &le; 4.5<br/>gini = 0.165<br/>samples = 11<br/>value = [1, 10]<br/>class = h>, fillcolor="#4da7e8"] ;
339 -> 340 ;
341 [label=<StreamingMovies &le; 0.5<br/>gini = 0.5<br/>samples = 2<br/>value = [1, 1]<br/>class = C>, fillcolor="#ffffff"] ;
340 -> 341 ;
342 [label=<gini = 0.0<br/>samples = 1<br/>value = [1, 0]<br/>class = C>, fillcolor="#e58139"] ;
341 -> 342 ;
343 [label=<gini = 0.0<br/>samples = 1<br/>value = [0, 1]<br/>class = h>, fillcolor="#399de5"] ;
341 -> 343 ;
344 [label=<gini = 0.0<br/>samples = 9<br/>value = [0, 9]<br/>class = h>, fillcolor="#399de5"] ;
340 -> 344 ;
345 [label=<gini = 0.0<br/>samples = 1<br/>value = [1, 0]<br/>class = C>, fillcolor="#e58139"] ;
339 -> 345 ;
346 [label=<MonthlyCharges &le; 51.075<br/>gini = 0.444<br/>samples = 15<br/>value = [10, 5]<br/>class = C>, fillcolor="#f2c09c"] ;
338 -> 346 ;
347 [label=<MonthlyCharges &le; 49.3<br/>gini = 0.494<br/>samples = 9<br/>value = [4, 5]<br/>class = h>, fillcolor="#d7ebfa"] ;
346 -> 347 ;
348 [label=<TechSupport &le; 0.5<br/>gini = 0.32<br/>samples = 5<br/>value = [4, 1]<br/>class = C>, fillcolor="#eca06a"] ;
347 -> 348 ;
349 [label=<gini = 0.0<br/>samples = 4<br/>value = [4, 0]<br/>class = C>, fillcolor="#e58139"] ;
348 -> 349 ;
350 [label=<gini = 0.0<br/>samples = 1<br/>value = [0, 1]<br/>class = h>, fillcolor="#399de5"] ;
348 -> 350 ;
351 [label=<gini = 0.0<br/>samples = 4<br/>value = [0, 4]<br/>class = h>, fillcolor="#399de5"] ;
347 -> 351 ;
352 [label=<gini = 0.0<br/>samples = 6<br/>value = [6, 0]<br/>class = C>, fillcolor="#e58139"] ;
346 -> 352 ;
353 [label=<SeniorCitizen &le; 0.5<br/>gini = 0.43<br/>samples = 80<br/>value = [55, 25]<br/>class = C>, fillcolor="#f1ba93"] ;
315 -> 353 ;
354 [label=<TotalCharges &le; 1152.45<br/>gini = 0.382<br/>samples = 66<br/>value = [49, 17]<br/>class = C>, fillcolor="#eead7e"] ;
353 -> 354 ;
355 [label=<PaperlessBilling &le; 0.5<br/>gini = 0.371<br/>samples = 65<br/>value = [49, 16]<br/>class = C>, fillcolor="#edaa7a"] ;
354 -> 355 ;
356 [label=<MonthlyCharges &le; 55.575<br/>gini = 0.211<br/>samples = 25<br/>value = [22, 3]<br/>class = C>, fillcolor="#e99254"] ;
355 -> 356 ;
357 [label=<TotalCharges &le; 412.35<br/>gini = 0.087<br/>samples = 22<br/>value = [21, 1]<br/>class = C>, fillcolor="#e68742"] ;
356 -> 357 ;
358 [label=<gini = 0.0<br/>samples = 13<br/>value = [13, 0]<br/>class = C>, fillcolor="#e58139"] ;
357 -> 358 ;
359 [label=<tenure &le; 9.5<br/>gini = 0.198<br/>samples = 9<br/>value = [8, 1]<br/>class = C>, fillcolor="#e89152"] ;
357 -> 359 ;
360 [label=<gini = 0.0<br/>samples = 1<br/>value = [0, 1]<br/>class = h>, fillcolor="#399de5"] ;
359 -> 360 ;
361 [label=<gini = 0.0<br/>samples = 8<br/>value = [8, 0]<br/>class = C>, fillcolor="#e58139"] ;
359 -> 361 ;
362 [label=<MonthlyCharges &le; 57.6<br/>gini = 0.444<br/>samples = 3<br/>value = [1, 2]<br/>class = h>, fillcolor="#9ccef2"] ;
356 -> 362 ;
363 [label=<gini = 0.0<br/>samples = 2<br/>value = [0, 2]<br/>class = h>, fillcolor="#399de5"] ;
362 -> 363 ;
364 [label=<gini = 0.0<br/>samples = 1<br/>value = [1, 0]<br/>class = C>, fillcolor="#e58139"] ;
362 -> 364 ;
365 [label=<MonthlyCharges &le; 50.225<br/>gini = 0.439<br/>samples = 40<br/>value = [27, 13]<br/>class = C>, fillcolor="#f2be98"] ;
355 -> 365 ;
366 [label=<tenure &le; 12.5<br/>gini = 0.487<br/>samples = 31<br/>value = [18, 13]<br/>class = C>, fillcolor="#f8dcc8"] ;
365 -> 366 ;
367 [label=<DeviceProtection &le; 0.5<br/>gini = 0.375<br/>samples = 16<br/>value = [12, 4]<br/>class = C>, fillcolor="#eeab7b"] ;
366 -> 367 ;
368 [label=<TechSupport &le; 0.5<br/>gini = 0.32<br/>samples = 15<br/>value = [12, 3]<br/>class = C>, fillcolor="#eca06a"] ;
367 -> 368 ;
369 [label=<TotalCharges &le; 93.275<br/>gini = 0.245<br/>samples = 14<br/>value = [12, 2]<br/>class = C>, fillcolor="#e9965a"] ;
368 -> 369 ;
370 [label=<TotalCharges &le; 84.75<br/>gini = 0.5<br/>samples = 2<br/>value = [1, 1]<br/>class = C>, fillcolor="#ffffff"] ;
369 -> 370 ;
371 [label=<gini = 0.0<br/>samples = 1<br/>value = [1, 0]<br/>class = C>, fillcolor="#e58139"] ;
370 -> 371 ;
372 [label=<gini = 0.0<br/>samples = 1<br/>value = [0, 1]<br/>class = h>, fillcolor="#399de5"] ;
370 -> 372 ;
373 [label=<TotalCharges &le; 444.7<br/>gini = 0.153<br/>samples = 12<br/>value = [11, 1]<br/>class = C>, fillcolor="#e78c4b"] ;
369 -> 373 ;
374 [label=<gini = 0.0<br/>samples = 9<br/>value = [9, 0]<br/>class = C>, fillcolor="#e58139"] ;
373 -> 374 ;
375 [label=<MonthlyCharges &le; 44.55<br/>gini = 0.444<br/>samples = 3<br/>value = [2, 1]<br/>class = C>, fillcolor="#f2c09c"] ;
373 -> 375 ;
376 [label=<gini = 0.0<br/>samples = 1<br/>value = [0, 1]<br/>class = h>, fillcolor="#399de5"] ;
375 -> 376 ;
377 [label=<gini = 0.0<br/>samples = 2<br/>value = [2, 0]<br/>class = C>, fillcolor="#e58139"] ;
375 -> 377 ;
378 [label=<gini = 0.0<br/>samples = 1<br/>value = [0, 1]<br/>class = h>, fillcolor="#399de5"] ;
368 -> 378 ;
379 [label=<gini = 0.0<br/>samples = 1<br/>value = [0, 1]<br/>class = h>, fillcolor="#399de5"] ;
367 -> 379 ;
380 [label=<tenure &le; 20.5<br/>gini = 0.48<br/>samples = 15<br/>value = [6, 9]<br/>class = h>, fillcolor="#bddef6"] ;
366 -> 380 ;
381 [label=<OnlineBackup &le; 0.5<br/>gini = 0.375<br/>samples = 12<br/>value = [3, 9]<br/>class = h>, fillcolor="#7bbeee"] ;
380 -> 381 ;
382 [label=<OnlineSecurity &le; 0.5<br/>gini = 0.198<br/>samples = 9<br/>value = [1, 8]<br/>class = h>, fillcolor="#52a9e8"] ;
381 -> 382 ;
383 [label=<gini = 0.0<br/>samples = 7<br/>value = [0, 7]<br/>class = h>, fillcolor="#399de5"] ;
382 -> 383 ;
384 [label=<StreamingTV &le; 0.5<br/>gini = 0.5<br/>samples = 2<br/>value = [1, 1]<br/>class = C>, fillcolor="#ffffff"] ;
382 -> 384 ;
385 [label=<gini = 0.0<br/>samples = 1<br/>value = [0, 1]<br/>class = h>, fillcolor="#399de5"] ;
384 -> 385 ;
386 [label=<gini = 0.0<br/>samples = 1<br/>value = [1, 0]<br/>class = C>, fillcolor="#e58139"] ;
384 -> 386 ;
387 [label=<TotalCharges &le; 368.6<br/>gini = 0.444<br/>samples = 3<br/>value = [2, 1]<br/>class = C>, fillcolor="#f2c09c"] ;
381 -> 387 ;
388 [label=<gini = 0.0<br/>samples = 1<br/>value = [0, 1]<br/>class = h>, fillcolor="#399de5"] ;
387 -> 388 ;
389 [label=<gini = 0.0<br/>samples = 2<br/>value = [2, 0]<br/>class = C>, fillcolor="#e58139"] ;
387 -> 389 ;
390 [label=<gini = 0.0<br/>samples = 3<br/>value = [3, 0]<br/>class = C>, fillcolor="#e58139"] ;
380 -> 390 ;
391 [label=<gini = 0.0<br/>samples = 9<br/>value = [9, 0]<br/>class = C>, fillcolor="#e58139"] ;
365 -> 391 ;
392 [label=<gini = 0.0<br/>samples = 1<br/>value = [0, 1]<br/>class = h>, fillcolor="#399de5"] ;
354 -> 392 ;
393 [label=<MonthlyCharges &le; 43.15<br/>gini = 0.49<br/>samples = 14<br/>value = [6, 8]<br/>class = h>, fillcolor="#cee6f8"] ;
353 -> 393 ;
394 [label=<gini = 0.0<br/>samples = 5<br/>value = [0, 5]<br/>class = h>, fillcolor="#399de5"] ;
393 -> 394 ;
395 [label=<Partner &le; 0.5<br/>gini = 0.444<br/>samples = 9<br/>value = [6, 3]<br/>class = C>, fillcolor="#f2c09c"] ;
393 -> 395 ;
396 [label=<TechSupport &le; 0.5<br/>gini = 0.278<br/>samples = 6<br/>value = [5, 1]<br/>class = C>, fillcolor="#ea9a61"] ;
395 -> 396 ;
397 [label=<gini = 0.0<br/>samples = 5<br/>value = [5, 0]<br/>class = C>, fillcolor="#e58139"] ;
396 -> 397 ;
398 [label=<gini = 0.0<br/>samples = 1<br/>value = [0, 1]<br/>class = h>, fillcolor="#399de5"] ;
396 -> 398 ;
399 [label=<MonthlyCharges &le; 45.65<br/>gini = 0.444<br/>samples = 3<br/>value = [1, 2]<br/>class = h>, fillcolor="#9ccef2"] ;
395 -> 399 ;
400 [label=<gini = 0.0<br/>samples = 1<br/>value = [1, 0]<br/>class = C>, fillcolor="#e58139"] ;
399 -> 400 ;
401 [label=<gini = 0.0<br/>samples = 2<br/>value = [0, 2]<br/>class = h>, fillcolor="#399de5"] ;
399 -> 401 ;
402 [label=<tenure &le; 21.0<br/>gini = 0.278<br/>samples = 36<br/>value = [30, 6]<br/>class = C>, fillcolor="#ea9a61"] ;
314 -> 402 ;
403 [label=<TotalCharges &le; 352.0<br/>gini = 0.245<br/>samples = 35<br/>value = [30, 5]<br/>class = C>, fillcolor="#e9965a"] ;
402 -> 403 ;
404 [label=<TotalCharges &le; 274.9<br/>gini = 0.5<br/>samples = 4<br/>value = [2, 2]<br/>class = C>, fillcolor="#ffffff"] ;
403 -> 404 ;
405 [label=<gini = 0.0<br/>samples = 2<br/>value = [2, 0]<br/>class = C>, fillcolor="#e58139"] ;
404 -> 405 ;
406 [label=<gini = 0.0<br/>samples = 2<br/>value = [0, 2]<br/>class = h>, fillcolor="#399de5"] ;
404 -> 406 ;
407 [label=<TotalCharges &le; 660.225<br/>gini = 0.175<br/>samples = 31<br/>value = [28, 3]<br/>class = C>, fillcolor="#e88e4e"] ;
403 -> 407 ;
408 [label=<gini = 0.0<br/>samples = 12<br/>value = [12, 0]<br/>class = C>, fillcolor="#e58139"] ;
407 -> 408 ;
409 [label=<TotalCharges &le; 764.575<br/>gini = 0.266<br/>samples = 19<br/>value = [16, 3]<br/>class = C>, fillcolor="#ea995e"] ;
407 -> 409 ;
410 [label=<MonthlyCharges &le; 65.625<br/>gini = 0.444<br/>samples = 3<br/>value = [1, 2]<br/>class = h>, fillcolor="#9ccef2"] ;
409 -> 410 ;
411 [label=<gini = 0.0<br/>samples = 1<br/>value = [1, 0]<br/>class = C>, fillcolor="#e58139"] ;
410 -> 411 ;
412 [label=<gini = 0.0<br/>samples = 2<br/>value = [0, 2]<br/>class = h>, fillcolor="#399de5"] ;
410 -> 412 ;
413 [label=<Partner &le; 0.5<br/>gini = 0.117<br/>samples = 16<br/>value = [15, 1]<br/>class = C>, fillcolor="#e78946"] ;
409 -> 413 ;
414 [label=<gini = 0.0<br/>samples = 10<br/>value = [10, 0]<br/>class = C>, fillcolor="#e58139"] ;
413 -> 414 ;
415 [label=<MonthlyCharges &le; 65.65<br/>gini = 0.278<br/>samples = 6<br/>value = [5, 1]<br/>class = C>, fillcolor="#ea9a61"] ;
413 -> 415 ;
416 [label=<OnlineSecurity &le; 0.5<br/>gini = 0.5<br/>samples = 2<br/>value = [1, 1]<br/>class = C>, fillcolor="#ffffff"] ;
415 -> 416 ;
417 [label=<gini = 0.0<br/>samples = 1<br/>value = [1, 0]<br/>class = C>, fillcolor="#e58139"] ;
416 -> 417 ;
418 [label=<gini = 0.0<br/>samples = 1<br/>value = [0, 1]<br/>class = h>, fillcolor="#399de5"] ;
416 -> 418 ;
419 [label=<gini = 0.0<br/>samples = 4<br/>value = [4, 0]<br/>class = C>, fillcolor="#e58139"] ;
415 -> 419 ;
420 [label=<gini = 0.0<br/>samples = 1<br/>value = [0, 1]<br/>class = h>, fillcolor="#399de5"] ;
402 -> 420 ;
421 [label=<TotalCharges &le; 2106.95<br/>gini = 0.273<br/>samples = 104<br/>value = [87, 17]<br/>class = C>, fillcolor="#ea9a60"] ;
313 -> 421 ;
422 [label=<tenure &le; 32.0<br/>gini = 0.168<br/>samples = 65<br/>value = [59, 6]<br/>class = C>, fillcolor="#e88e4d"] ;
421 -> 422 ;
423 [label=<PaperlessBilling &le; 0.5<br/>gini = 0.271<br/>samples = 31<br/>value = [26, 5]<br/>class = C>, fillcolor="#ea995f"] ;
422 -> 423 ;
424 [label=<OnlineSecurity &le; 0.5<br/>gini = 0.111<br/>samples = 17<br/>value = [16, 1]<br/>class = C>, fillcolor="#e78945"] ;
423 -> 424 ;
425 [label=<gini = 0.0<br/>samples = 13<br/>value = [13, 0]<br/>class = C>, fillcolor="#e58139"] ;
424 -> 425 ;
426 [label=<tenure &le; 24.5<br/>gini = 0.375<br/>samples = 4<br/>value = [3, 1]<br/>class = C>, fillcolor="#eeab7b"] ;
424 -> 426 ;
427 [label=<gini = 0.0<br/>samples = 1<br/>value = [0, 1]<br/>class = h>, fillcolor="#399de5"] ;
426 -> 427 ;
428 [label=<gini = 0.0<br/>samples = 3<br/>value = [3, 0]<br/>class = C>, fillcolor="#e58139"] ;
426 -> 428 ;
429 [label=<StreamingMovies &le; 0.5<br/>gini = 0.408<br/>samples = 14<br/>value = [10, 4]<br/>class = C>, fillcolor="#efb388"] ;
423 -> 429 ;
430 [label=<TotalCharges &le; 1529.075<br/>gini = 0.494<br/>samples = 9<br/>value = [5, 4]<br/>class = C>, fillcolor="#fae6d7"] ;
429 -> 430 ;
431 [label=<gender &le; 0.5<br/>gini = 0.408<br/>samples = 7<br/>value = [5, 2]<br/>class = C>, fillcolor="#efb388"] ;
430 -> 431 ;
432 [label=<gini = 0.0<br/>samples = 4<br/>value = [4, 0]<br/>class = C>, fillcolor="#e58139"] ;
431 -> 432 ;
433 [label=<tenure &le; 28.5<br/>gini = 0.444<br/>samples = 3<br/>value = [1, 2]<br/>class = h>, fillcolor="#9ccef2"] ;
431 -> 433 ;
434 [label=<gini = 0.0<br/>samples = 1<br/>value = [1, 0]<br/>class = C>, fillcolor="#e58139"] ;
433 -> 434 ;
435 [label=<gini = 0.0<br/>samples = 2<br/>value = [0, 2]<br/>class = h>, fillcolor="#399de5"] ;
433 -> 435 ;
436 [label=<gini = 0.0<br/>samples = 2<br/>value = [0, 2]<br/>class = h>, fillcolor="#399de5"] ;
430 -> 436 ;
437 [label=<gini = 0.0<br/>samples = 5<br/>value = [5, 0]<br/>class = C>, fillcolor="#e58139"] ;
429 -> 437 ;
438 [label=<SeniorCitizen &le; 0.5<br/>gini = 0.057<br/>samples = 34<br/>value = [33, 1]<br/>class = C>, fillcolor="#e6853f"] ;
422 -> 438 ;
439 [label=<gini = 0.0<br/>samples = 27<br/>value = [27, 0]<br/>class = C>, fillcolor="#e58139"] ;
438 -> 439 ;
440 [label=<tenure &le; 39.0<br/>gini = 0.245<br/>samples = 7<br/>value = [6, 1]<br/>class = C>, fillcolor="#e9965a"] ;
438 -> 440 ;
441 [label=<gini = 0.0<br/>samples = 6<br/>value = [6, 0]<br/>class = C>, fillcolor="#e58139"] ;
440 -> 441 ;
442 [label=<gini = 0.0<br/>samples = 1<br/>value = [0, 1]<br/>class = h>, fillcolor="#399de5"] ;
440 -> 442 ;
443 [label=<TotalCharges &le; 2654.375<br/>gini = 0.405<br/>samples = 39<br/>value = [28, 11]<br/>class = C>, fillcolor="#efb287"] ;
421 -> 443 ;
444 [label=<tenure &le; 32.5<br/>gini = 0.498<br/>samples = 17<br/>value = [8, 9]<br/>class = h>, fillcolor="#e9f4fc"] ;
443 -> 444 ;
445 [label=<gini = 0.0<br/>samples = 3<br/>value = [3, 0]<br/>class = C>, fillcolor="#e58139"] ;
444 -> 445 ;
446 [label=<MonthlyCharges &le; 55.025<br/>gini = 0.459<br/>samples = 14<br/>value = [5, 9]<br/>class = h>, fillcolor="#a7d3f3"] ;
444 -> 446 ;
447 [label=<MonthlyCharges &le; 49.825<br/>gini = 0.469<br/>samples = 8<br/>value = [5, 3]<br/>class = C>, fillcolor="#f5cdb0"] ;
446 -> 447 ;
448 [label=<OnlineSecurity &le; 0.5<br/>gini = 0.375<br/>samples = 4<br/>value = [1, 3]<br/>class = h>, fillcolor="#7bbeee"] ;
447 -> 448 ;
449 [label=<gini = 0.0<br/>samples = 3<br/>value = [0, 3]<br/>class = h>, fillcolor="#399de5"] ;
448 -> 449 ;
450 [label=<gini = 0.0<br/>samples = 1<br/>value = [1, 0]<br/>class = C>, fillcolor="#e58139"] ;
448 -> 450 ;
451 [label=<gini = 0.0<br/>samples = 4<br/>value = [4, 0]<br/>class = C>, fillcolor="#e58139"] ;
447 -> 451 ;
452 [label=<gini = 0.0<br/>samples = 6<br/>value = [0, 6]<br/>class = h>, fillcolor="#399de5"] ;
446 -> 452 ;
453 [label=<PhoneService &le; 0.5<br/>gini = 0.165<br/>samples = 22<br/>value = [20, 2]<br/>class = C>, fillcolor="#e88e4d"] ;
443 -> 453 ;
454 [label=<MonthlyCharges &le; 50.525<br/>gini = 0.375<br/>samples = 8<br/>value = [6, 2]<br/>class = C>, fillcolor="#eeab7b"] ;
453 -> 454 ;
455 [label=<gini = 0.0<br/>samples = 5<br/>value = [5, 0]<br/>class = C>, fillcolor="#e58139"] ;
454 -> 455 ;
456 [label=<TechSupport &le; 0.5<br/>gini = 0.444<br/>samples = 3<br/>value = [1, 2]<br/>class = h>, fillcolor="#9ccef2"] ;
454 -> 456 ;
457 [label=<gini = 0.0<br/>samples = 2<br/>value = [0, 2]<br/>class = h>, fillcolor="#399de5"] ;
456 -> 457 ;
458 [label=<gini = 0.0<br/>samples = 1<br/>value = [1, 0]<br/>class = C>, fillcolor="#e58139"] ;
456 -> 458 ;
459 [label=<gini = 0.0<br/>samples = 14<br/>value = [14, 0]<br/>class = C>, fillcolor="#e58139"] ;
453 -> 459 ;
460 [label=<tenure &le; 16.5<br/>gini = 0.256<br/>samples = 636<br/>value = [540, 96]<br/>class = C>, fillcolor="#ea975c"] ;
312 -> 460 ;
461 [label=<MonthlyCharges &le; 25.175<br/>gini = 0.309<br/>samples = 340<br/>value = [275, 65]<br/>class = C>, fillcolor="#eb9f68"] ;
460 -> 461 ;
462 [label=<TotalCharges &le; 341.625<br/>gini = 0.204<br/>samples = 139<br/>value = [123, 16]<br/>class = C>, fillcolor="#e89153"] ;
461 -> 462 ;
463 [label=<MonthlyCharges &le; 19.425<br/>gini = 0.194<br/>samples = 138<br/>value = [123, 15]<br/>class = C>, fillcolor="#e89051"] ;
462 -> 463 ;
464 [label=<TotalCharges &le; 174.475<br/>gini = 0.375<br/>samples = 20<br/>value = [15, 5]<br/>class = C>, fillcolor="#eeab7b"] ;
463 -> 464 ;
465 [label=<Partner &le; 0.5<br/>gini = 0.142<br/>samples = 13<br/>value = [12, 1]<br/>class = C>, fillcolor="#e78c49"] ;
464 -> 465 ;
466 [label=<gini = 0.0<br/>samples = 11<br/>value = [11, 0]<br/>class = C>, fillcolor="#e58139"] ;
465 -> 466 ;
467 [label=<Dependents &le; 0.5<br/>gini = 0.5<br/>samples = 2<br/>value = [1, 1]<br/>class = C>, fillcolor="#ffffff"] ;
465 -> 467 ;
468 [label=<gini = 0.0<br/>samples = 1<br/>value = [0, 1]<br/>class = h>, fillcolor="#399de5"] ;
467 -> 468 ;
469 [label=<gini = 0.0<br/>samples = 1<br/>value = [1, 0]<br/>class = C>, fillcolor="#e58139"] ;
467 -> 469 ;
470 [label=<TotalCharges &le; 191.85<br/>gini = 0.49<br/>samples = 7<br/>value = [3, 4]<br/>class = h>, fillcolor="#cee6f8"] ;
464 -> 470 ;
471 [label=<gini = 0.0<br/>samples = 2<br/>value = [0, 2]<br/>class = h>, fillcolor="#399de5"] ;
470 -> 471 ;
472 [label=<TotalCharges &le; 284.3<br/>gini = 0.48<br/>samples = 5<br/>value = [3, 2]<br/>class = C>, fillcolor="#f6d5bd"] ;
470 -> 472 ;
473 [label=<MonthlyCharges &le; 19.15<br/>gini = 0.375<br/>samples = 4<br/>value = [3, 1]<br/>class = C>, fillcolor="#eeab7b"] ;
472 -> 473 ;
474 [label=<tenure &le; 12.5<br/>gini = 0.5<br/>samples = 2<br/>value = [1, 1]<br/>class = C>, fillcolor="#ffffff"] ;
473 -> 474 ;
475 [label=<gini = 0.0<br/>samples = 1<br/>value = [0, 1]<br/>class = h>, fillcolor="#399de5"] ;
474 -> 475 ;
476 [label=<gini = 0.0<br/>samples = 1<br/>value = [1, 0]<br/>class = C>, fillcolor="#e58139"] ;
474 -> 476 ;
477 [label=<gini = 0.0<br/>samples = 2<br/>value = [2, 0]<br/>class = C>, fillcolor="#e58139"] ;
473 -> 477 ;
478 [label=<gini = 0.0<br/>samples = 1<br/>value = [0, 1]<br/>class = h>, fillcolor="#399de5"] ;
472 -> 478 ;
479 [label=<PaperlessBilling &le; 0.5<br/>gini = 0.155<br/>samples = 118<br/>value = [108, 10]<br/>class = C>, fillcolor="#e78d4b"] ;
463 -> 479 ;
480 [label=<TotalCharges &le; 145.325<br/>gini = 0.208<br/>samples = 85<br/>value = [75, 10]<br/>class = C>, fillcolor="#e89253"] ;
479 -> 480 ;
481 [label=<TotalCharges &le; 77.9<br/>gini = 0.059<br/>samples = 33<br/>value = [32, 1]<br/>class = C>, fillcolor="#e6853f"] ;
480 -> 481 ;
482 [label=<TotalCharges &le; 75.275<br/>gini = 0.5<br/>samples = 2<br/>value = [1, 1]<br/>class = C>, fillcolor="#ffffff"] ;
481 -> 482 ;
483 [label=<gini = 0.0<br/>samples = 1<br/>value = [1, 0]<br/>class = C>, fillcolor="#e58139"] ;
482 -> 483 ;
484 [label=<gini = 0.0<br/>samples = 1<br/>value = [0, 1]<br/>class = h>, fillcolor="#399de5"] ;
482 -> 484 ;
485 [label=<gini = 0.0<br/>samples = 31<br/>value = [31, 0]<br/>class = C>, fillcolor="#e58139"] ;
481 -> 485 ;
486 [label=<tenure &le; 6.5<br/>gini = 0.286<br/>samples = 52<br/>value = [43, 9]<br/>class = C>, fillcolor="#ea9b62"] ;
480 -> 486 ;
487 [label=<gini = 0.0<br/>samples = 1<br/>value = [0, 1]<br/>class = h>, fillcolor="#399de5"] ;
486 -> 487 ;
488 [label=<SeniorCitizen &le; 0.5<br/>gini = 0.265<br/>samples = 51<br/>value = [43, 8]<br/>class = C>, fillcolor="#ea985e"] ;
486 -> 488 ;
489 [label=<PaymentMethod &le; 1.5<br/>gini = 0.241<br/>samples = 50<br/>value = [43, 7]<br/>class = C>, fillcolor="#e99659"] ;
488 -> 489 ;
490 [label=<TotalCharges &le; 178.65<br/>gini = 0.128<br/>samples = 29<br/>value = [27, 2]<br/>class = C>, fillcolor="#e78a48"] ;
489 -> 490 ;
491 [label=<tenure &le; 8.5<br/>gini = 0.32<br/>samples = 10<br/>value = [8, 2]<br/>class = C>, fillcolor="#eca06a"] ;
490 -> 491 ;
492 [label=<MonthlyCharges &le; 20.15<br/>gini = 0.198<br/>samples = 9<br/>value = [8, 1]<br/>class = C>, fillcolor="#e89152"] ;
491 -> 492 ;
493 [label=<tenure &le; 7.5<br/>gini = 0.444<br/>samples = 3<br/>value = [2, 1]<br/>class = C>, fillcolor="#f2c09c"] ;
492 -> 493 ;
494 [label=<gini = 0.0<br/>samples = 1<br/>value = [0, 1]<br/>class = h>, fillcolor="#399de5"] ;
493 -> 494 ;
495 [label=<gini = 0.0<br/>samples = 2<br/>value = [2, 0]<br/>class = C>, fillcolor="#e58139"] ;
493 -> 495 ;
496 [label=<gini = 0.0<br/>samples = 6<br/>value = [6, 0]<br/>class = C>, fillcolor="#e58139"] ;
492 -> 496 ;
497 [label=<gini = 0.0<br/>samples = 1<br/>value = [0, 1]<br/>class = h>, fillcolor="#399de5"] ;
491 -> 497 ;
498 [label=<gini = 0.0<br/>samples = 19<br/>value = [19, 0]<br/>class = C>, fillcolor="#e58139"] ;
490 -> 498 ;
499 [label=<MonthlyCharges &le; 19.725<br/>gini = 0.363<br/>samples = 21<br/>value = [16, 5]<br/>class = C>, fillcolor="#eda877"] ;
489 -> 499 ;
500 [label=<gini = 0.0<br/>samples = 7<br/>value = [7, 0]<br/>class = C>, fillcolor="#e58139"] ;
499 -> 500 ;
501 [label=<TotalCharges &le; 182.25<br/>gini = 0.459<br/>samples = 14<br/>value = [9, 5]<br/>class = C>, fillcolor="#f3c7a7"] ;
499 -> 501 ;
502 [label=<gini = 0.0<br/>samples = 1<br/>value = [0, 1]<br/>class = h>, fillcolor="#399de5"] ;
501 -> 502 ;
503 [label=<TotalCharges &le; 296.1<br/>gini = 0.426<br/>samples = 13<br/>value = [9, 4]<br/>class = C>, fillcolor="#f1b991"] ;
501 -> 503 ;
504 [label=<TotalCharges &le; 245.75<br/>gini = 0.32<br/>samples = 10<br/>value = [8, 2]<br/>class = C>, fillcolor="#eca06a"] ;
503 -> 504 ;
505 [label=<tenure &le; 10.5<br/>gini = 0.444<br/>samples = 6<br/>value = [4, 2]<br/>class = C>, fillcolor="#f2c09c"] ;
504 -> 505 ;
506 [label=<gini = 0.0<br/>samples = 3<br/>value = [3, 0]<br/>class = C>, fillcolor="#e58139"] ;
505 -> 506 ;
507 [label=<tenure &le; 11.5<br/>gini = 0.444<br/>samples = 3<br/>value = [1, 2]<br/>class = h>, fillcolor="#9ccef2"] ;
505 -> 507 ;
508 [label=<gini = 0.0<br/>samples = 2<br/>value = [0, 2]<br/>class = h>, fillcolor="#399de5"] ;
507 -> 508 ;
509 [label=<gini = 0.0<br/>samples = 1<br/>value = [1, 0]<br/>class = C>, fillcolor="#e58139"] ;
507 -> 509 ;
510 [label=<gini = 0.0<br/>samples = 4<br/>value = [4, 0]<br/>class = C>, fillcolor="#e58139"] ;
504 -> 510 ;
511 [label=<Partner &le; 0.5<br/>gini = 0.444<br/>samples = 3<br/>value = [1, 2]<br/>class = h>, fillcolor="#9ccef2"] ;
503 -> 511 ;
512 [label=<gini = 0.0<br/>samples = 2<br/>value = [0, 2]<br/>class = h>, fillcolor="#399de5"] ;
511 -> 512 ;
513 [label=<gini = 0.0<br/>samples = 1<br/>value = [1, 0]<br/>class = C>, fillcolor="#e58139"] ;
511 -> 513 ;
514 [label=<gini = 0.0<br/>samples = 1<br/>value = [0, 1]<br/>class = h>, fillcolor="#399de5"] ;
488 -> 514 ;
515 [label=<gini = 0.0<br/>samples = 33<br/>value = [33, 0]<br/>class = C>, fillcolor="#e58139"] ;
479 -> 515 ;
516 [label=<gini = 0.0<br/>samples = 1<br/>value = [0, 1]<br/>class = h>, fillcolor="#399de5"] ;
462 -> 516 ;
517 [label=<TotalCharges &le; 270.85<br/>gini = 0.369<br/>samples = 201<br/>value = [152, 49]<br/>class = C>, fillcolor="#edaa79"] ;
461 -> 517 ;
518 [label=<OnlineSecurity &le; 0.5<br/>gini = 0.478<br/>samples = 53<br/>value = [32, 21]<br/>class = C>, fillcolor="#f6d4bb"] ;
517 -> 518 ;
519 [label=<StreamingTV &le; 0.5<br/>gini = 0.5<br/>samples = 37<br/>value = [19, 18]<br/>class = C>, fillcolor="#fef8f5"] ;
518 -> 519 ;
520 [label=<TotalCharges &le; 189.95<br/>gini = 0.496<br/>samples = 33<br/>value = [15, 18]<br/>class = h>, fillcolor="#deeffb"] ;
519 -> 520 ;
521 [label=<MonthlyCharges &le; 49.4<br/>gini = 0.463<br/>samples = 11<br/>value = [7, 4]<br/>class = C>, fillcolor="#f4c9aa"] ;
520 -> 521 ;
522 [label=<MonthlyCharges &le; 25.225<br/>gini = 0.346<br/>samples = 9<br/>value = [7, 2]<br/>class = C>, fillcolor="#eca572"] ;
521 -> 522 ;
523 [label=<gini = 0.0<br/>samples = 1<br/>value = [0, 1]<br/>class = h>, fillcolor="#399de5"] ;
522 -> 523 ;
524 [label=<Partner &le; 0.5<br/>gini = 0.219<br/>samples = 8<br/>value = [7, 1]<br/>class = C>, fillcolor="#e99355"] ;
522 -> 524 ;
525 [label=<gini = 0.0<br/>samples = 6<br/>value = [6, 0]<br/>class = C>, fillcolor="#e58139"] ;
524 -> 525 ;
526 [label=<MonthlyCharges &le; 35.575<br/>gini = 0.5<br/>samples = 2<br/>value = [1, 1]<br/>class = C>, fillcolor="#ffffff"] ;
524 -> 526 ;
527 [label=<gini = 0.0<br/>samples = 1<br/>value = [0, 1]<br/>class = h>, fillcolor="#399de5"] ;
526 -> 527 ;
528 [label=<gini = 0.0<br/>samples = 1<br/>value = [1, 0]<br/>class = C>, fillcolor="#e58139"] ;
526 -> 528 ;
529 [label=<gini = 0.0<br/>samples = 2<br/>value = [0, 2]<br/>class = h>, fillcolor="#399de5"] ;
521 -> 529 ;
530 [label=<tenure &le; 5.5<br/>gini = 0.463<br/>samples = 22<br/>value = [8, 14]<br/>class = h>, fillcolor="#aad5f4"] ;
520 -> 530 ;
531 [label=<TotalCharges &le; 201.7<br/>gini = 0.498<br/>samples = 17<br/>value = [8, 9]<br/>class = h>, fillcolor="#e9f4fc"] ;
530 -> 531 ;
532 [label=<gini = 0.0<br/>samples = 3<br/>value = [0, 3]<br/>class = h>, fillcolor="#399de5"] ;
531 -> 532 ;
533 [label=<gender &le; 0.5<br/>gini = 0.49<br/>samples = 14<br/>value = [8, 6]<br/>class = C>, fillcolor="#f8e0ce"] ;
531 -> 533 ;
534 [label=<PaymentMethod &le; 2.5<br/>gini = 0.375<br/>samples = 8<br/>value = [6, 2]<br/>class = C>, fillcolor="#eeab7b"] ;
533 -> 534 ;
535 [label=<TotalCharges &le; 213.675<br/>gini = 0.245<br/>samples = 7<br/>value = [6, 1]<br/>class = C>, fillcolor="#e9965a"] ;
534 -> 535 ;
536 [label=<TotalCharges &le; 204.45<br/>gini = 0.5<br/>samples = 2<br/>value = [1, 1]<br/>class = C>, fillcolor="#ffffff"] ;
535 -> 536 ;
537 [label=<gini = 0.0<br/>samples = 1<br/>value = [1, 0]<br/>class = C>, fillcolor="#e58139"] ;
536 -> 537 ;
538 [label=<gini = 0.0<br/>samples = 1<br/>value = [0, 1]<br/>class = h>, fillcolor="#399de5"] ;
536 -> 538 ;
539 [label=<gini = 0.0<br/>samples = 5<br/>value = [5, 0]<br/>class = C>, fillcolor="#e58139"] ;
535 -> 539 ;
540 [label=<gini = 0.0<br/>samples = 1<br/>value = [0, 1]<br/>class = h>, fillcolor="#399de5"] ;
534 -> 540 ;
541 [label=<MonthlyCharges &le; 50.575<br/>gini = 0.444<br/>samples = 6<br/>value = [2, 4]<br/>class = h>, fillcolor="#9ccef2"] ;
533 -> 541 ;
542 [label=<Partner &le; 0.5<br/>gini = 0.444<br/>samples = 3<br/>value = [2, 1]<br/>class = C>, fillcolor="#f2c09c"] ;
541 -> 542 ;
543 [label=<TotalCharges &le; 233.225<br/>gini = 0.5<br/>samples = 2<br/>value = [1, 1]<br/>class = C>, fillcolor="#ffffff"] ;
542 -> 543 ;
544 [label=<gini = 0.0<br/>samples = 1<br/>value = [0, 1]<br/>class = h>, fillcolor="#399de5"] ;
543 -> 544 ;
545 [label=<gini = 0.0<br/>samples = 1<br/>value = [1, 0]<br/>class = C>, fillcolor="#e58139"] ;
543 -> 545 ;
546 [label=<gini = 0.0<br/>samples = 1<br/>value = [1, 0]<br/>class = C>, fillcolor="#e58139"] ;
542 -> 546 ;
547 [label=<gini = 0.0<br/>samples = 3<br/>value = [0, 3]<br/>class = h>, fillcolor="#399de5"] ;
541 -> 547 ;
548 [label=<gini = 0.0<br/>samples = 5<br/>value = [0, 5]<br/>class = h>, fillcolor="#399de5"] ;
530 -> 548 ;
549 [label=<gini = 0.0<br/>samples = 4<br/>value = [4, 0]<br/>class = C>, fillcolor="#e58139"] ;
519 -> 549 ;
550 [label=<TechSupport &le; 0.5<br/>gini = 0.305<br/>samples = 16<br/>value = [13, 3]<br/>class = C>, fillcolor="#eb9e67"] ;
518 -> 550 ;
551 [label=<gini = 0.0<br/>samples = 9<br/>value = [9, 0]<br/>class = C>, fillcolor="#e58139"] ;
550 -> 551 ;
552 [label=<tenure &le; 4.5<br/>gini = 0.49<br/>samples = 7<br/>value = [4, 3]<br/>class = C>, fillcolor="#f8e0ce"] ;
550 -> 552 ;
553 [label=<gini = 0.0<br/>samples = 2<br/>value = [2, 0]<br/>class = C>, fillcolor="#e58139"] ;
552 -> 553 ;
554 [label=<DeviceProtection &le; 0.5<br/>gini = 0.48<br/>samples = 5<br/>value = [2, 3]<br/>class = h>, fillcolor="#bddef6"] ;
552 -> 554 ;
555 [label=<PaymentMethod &le; 2.0<br/>gini = 0.444<br/>samples = 3<br/>value = [2, 1]<br/>class = C>, fillcolor="#f2c09c"] ;
554 -> 555 ;
556 [label=<gini = 0.0<br/>samples = 2<br/>value = [2, 0]<br/>class = C>, fillcolor="#e58139"] ;
555 -> 556 ;
557 [label=<gini = 0.0<br/>samples = 1<br/>value = [0, 1]<br/>class = h>, fillcolor="#399de5"] ;
555 -> 557 ;
558 [label=<gini = 0.0<br/>samples = 2<br/>value = [0, 2]<br/>class = h>, fillcolor="#399de5"] ;
554 -> 558 ;
559 [label=<Dependents &le; 0.5<br/>gini = 0.307<br/>samples = 148<br/>value = [120, 28]<br/>class = C>, fillcolor="#eb9e67"] ;
517 -> 559 ;
560 [label=<gender &le; 0.5<br/>gini = 0.356<br/>samples = 108<br/>value = [83, 25]<br/>class = C>, fillcolor="#eda775"] ;
559 -> 560 ;
561 [label=<MonthlyCharges &le; 45.6<br/>gini = 0.255<br/>samples = 60<br/>value = [51, 9]<br/>class = C>, fillcolor="#ea975c"] ;
560 -> 561 ;
562 [label=<MonthlyCharges &le; 44.775<br/>gini = 0.457<br/>samples = 17<br/>value = [11, 6]<br/>class = C>, fillcolor="#f3c6a5"] ;
561 -> 562 ;
563 [label=<StreamingTV &le; 0.5<br/>gini = 0.278<br/>samples = 12<br/>value = [10, 2]<br/>class = C>, fillcolor="#ea9a61"] ;
562 -> 563 ;
564 [label=<gini = 0.0<br/>samples = 10<br/>value = [10, 0]<br/>class = C>, fillcolor="#e58139"] ;
563 -> 564 ;
565 [label=<gini = 0.0<br/>samples = 2<br/>value = [0, 2]<br/>class = h>, fillcolor="#399de5"] ;
563 -> 565 ;
566 [label=<PaperlessBilling &le; 0.5<br/>gini = 0.32<br/>samples = 5<br/>value = [1, 4]<br/>class = h>, fillcolor="#6ab6ec"] ;
562 -> 566 ;
567 [label=<tenure &le; 10.0<br/>gini = 0.5<br/>samples = 2<br/>value = [1, 1]<br/>class = C>, fillcolor="#ffffff"] ;
566 -> 567 ;
568 [label=<gini = 0.0<br/>samples = 1<br/>value = [0, 1]<br/>class = h>, fillcolor="#399de5"] ;
567 -> 568 ;
569 [label=<gini = 0.0<br/>samples = 1<br/>value = [1, 0]<br/>class = C>, fillcolor="#e58139"] ;
567 -> 569 ;
570 [label=<gini = 0.0<br/>samples = 3<br/>value = [0, 3]<br/>class = h>, fillcolor="#399de5"] ;
566 -> 570 ;
571 [label=<MonthlyCharges &le; 51.325<br/>gini = 0.13<br/>samples = 43<br/>value = [40, 3]<br/>class = C>, fillcolor="#e78a48"] ;
561 -> 571 ;
572 [label=<MonthlyCharges &le; 50.975<br/>gini = 0.245<br/>samples = 14<br/>value = [12, 2]<br/>class = C>, fillcolor="#e9965a"] ;
571 -> 572 ;
573 [label=<MonthlyCharges &le; 50.225<br/>gini = 0.142<br/>samples = 13<br/>value = [12, 1]<br/>class = C>, fillcolor="#e78c49"] ;
572 -> 573 ;
574 [label=<gini = 0.0<br/>samples = 10<br/>value = [10, 0]<br/>class = C>, fillcolor="#e58139"] ;
573 -> 574 ;
575 [label=<PaperlessBilling &le; 0.5<br/>gini = 0.444<br/>samples = 3<br/>value = [2, 1]<br/>class = C>, fillcolor="#f2c09c"] ;
573 -> 575 ;
576 [label=<gini = 0.0<br/>samples = 1<br/>value = [0, 1]<br/>class = h>, fillcolor="#399de5"] ;
575 -> 576 ;
577 [label=<gini = 0.0<br/>samples = 2<br/>value = [2, 0]<br/>class = C>, fillcolor="#e58139"] ;
575 -> 577 ;
578 [label=<gini = 0.0<br/>samples = 1<br/>value = [0, 1]<br/>class = h>, fillcolor="#399de5"] ;
572 -> 578 ;
579 [label=<MonthlyCharges &le; 71.775<br/>gini = 0.067<br/>samples = 29<br/>value = [28, 1]<br/>class = C>, fillcolor="#e68640"] ;
571 -> 579 ;
580 [label=<gini = 0.0<br/>samples = 24<br/>value = [24, 0]<br/>class = C>, fillcolor="#e58139"] ;
579 -> 580 ;
581 [label=<MonthlyCharges &le; 72.75<br/>gini = 0.32<br/>samples = 5<br/>value = [4, 1]<br/>class = C>, fillcolor="#eca06a"] ;
579 -> 581 ;
582 [label=<gini = 0.0<br/>samples = 1<br/>value = [0, 1]<br/>class = h>, fillcolor="#399de5"] ;
581 -> 582 ;
583 [label=<gini = 0.0<br/>samples = 4<br/>value = [4, 0]<br/>class = C>, fillcolor="#e58139"] ;
581 -> 583 ;
584 [label=<TechSupport &le; 0.5<br/>gini = 0.444<br/>samples = 48<br/>value = [32, 16]<br/>class = C>, fillcolor="#f2c09c"] ;
560 -> 584 ;
585 [label=<TotalCharges &le; 816.875<br/>gini = 0.35<br/>samples = 31<br/>value = [24, 7]<br/>class = C>, fillcolor="#eda673"] ;
584 -> 585 ;
586 [label=<MonthlyCharges &le; 27.575<br/>gini = 0.252<br/>samples = 27<br/>value = [23, 4]<br/>class = C>, fillcolor="#ea975b"] ;
585 -> 586 ;
587 [label=<gini = 0.0<br/>samples = 1<br/>value = [0, 1]<br/>class = h>, fillcolor="#399de5"] ;
586 -> 587 ;
588 [label=<MonthlyCharges &le; 48.775<br/>gini = 0.204<br/>samples = 26<br/>value = [23, 3]<br/>class = C>, fillcolor="#e89153"] ;
586 -> 588 ;
589 [label=<MonthlyCharges &le; 47.225<br/>gini = 0.355<br/>samples = 13<br/>value = [10, 3]<br/>class = C>, fillcolor="#eda774"] ;
588 -> 589 ;
590 [label=<MonthlyCharges &le; 44.225<br/>gini = 0.165<br/>samples = 11<br/>value = [10, 1]<br/>class = C>, fillcolor="#e88e4d"] ;
589 -> 590 ;
591 [label=<TotalCharges &le; 398.725<br/>gini = 0.375<br/>samples = 4<br/>value = [3, 1]<br/>class = C>, fillcolor="#eeab7b"] ;
590 -> 591 ;
592 [label=<gini = 0.0<br/>samples = 3<br/>value = [3, 0]<br/>class = C>, fillcolor="#e58139"] ;
591 -> 592 ;
593 [label=<gini = 0.0<br/>samples = 1<br/>value = [0, 1]<br/>class = h>, fillcolor="#399de5"] ;
591 -> 593 ;
594 [label=<gini = 0.0<br/>samples = 7<br/>value = [7, 0]<br/>class = C>, fillcolor="#e58139"] ;
590 -> 594 ;
595 [label=<gini = 0.0<br/>samples = 2<br/>value = [0, 2]<br/>class = h>, fillcolor="#399de5"] ;
589 -> 595 ;
596 [label=<gini = 0.0<br/>samples = 13<br/>value = [13, 0]<br/>class = C>, fillcolor="#e58139"] ;
588 -> 596 ;
597 [label=<tenure &le; 15.5<br/>gini = 0.375<br/>samples = 4<br/>value = [1, 3]<br/>class = h>, fillcolor="#7bbeee"] ;
585 -> 597 ;
598 [label=<gini = 0.0<br/>samples = 3<br/>value = [0, 3]<br/>class = h>, fillcolor="#399de5"] ;
597 -> 598 ;
599 [label=<gini = 0.0<br/>samples = 1<br/>value = [1, 0]<br/>class = C>, fillcolor="#e58139"] ;
597 -> 599 ;
600 [label=<PaperlessBilling &le; 0.5<br/>gini = 0.498<br/>samples = 17<br/>value = [8, 9]<br/>class = h>, fillcolor="#e9f4fc"] ;
584 -> 600 ;
601 [label=<MultipleLines &le; 0.5<br/>gini = 0.444<br/>samples = 12<br/>value = [8, 4]<br/>class = C>, fillcolor="#f2c09c"] ;
600 -> 601 ;
602 [label=<tenure &le; 8.5<br/>gini = 0.32<br/>samples = 10<br/>value = [8, 2]<br/>class = C>, fillcolor="#eca06a"] ;
601 -> 602 ;
603 [label=<gini = 0.0<br/>samples = 5<br/>value = [5, 0]<br/>class = C>, fillcolor="#e58139"] ;
602 -> 603 ;
604 [label=<TotalCharges &le; 655.525<br/>gini = 0.48<br/>samples = 5<br/>value = [3, 2]<br/>class = C>, fillcolor="#f6d5bd"] ;
602 -> 604 ;
605 [label=<gini = 0.0<br/>samples = 2<br/>value = [0, 2]<br/>class = h>, fillcolor="#399de5"] ;
604 -> 605 ;
606 [label=<gini = 0.0<br/>samples = 3<br/>value = [3, 0]<br/>class = C>, fillcolor="#e58139"] ;
604 -> 606 ;
607 [label=<gini = 0.0<br/>samples = 2<br/>value = [0, 2]<br/>class = h>, fillcolor="#399de5"] ;
601 -> 607 ;
608 [label=<gini = 0.0<br/>samples = 5<br/>value = [0, 5]<br/>class = h>, fillcolor="#399de5"] ;
600 -> 608 ;
609 [label=<TotalCharges &le; 368.9<br/>gini = 0.139<br/>samples = 40<br/>value = [37, 3]<br/>class = C>, fillcolor="#e78b49"] ;
559 -> 609 ;
610 [label=<OnlineBackup &le; 0.5<br/>gini = 0.42<br/>samples = 10<br/>value = [7, 3]<br/>class = C>, fillcolor="#f0b78e"] ;
609 -> 610 ;
611 [label=<gini = 0.0<br/>samples = 6<br/>value = [6, 0]<br/>class = C>, fillcolor="#e58139"] ;
610 -> 611 ;
612 [label=<MultipleLines &le; 0.5<br/>gini = 0.375<br/>samples = 4<br/>value = [1, 3]<br/>class = h>, fillcolor="#7bbeee"] ;
610 -> 612 ;
613 [label=<gini = 0.0<br/>samples = 3<br/>value = [0, 3]<br/>class = h>, fillcolor="#399de5"] ;
612 -> 613 ;
614 [label=<gini = 0.0<br/>samples = 1<br/>value = [1, 0]<br/>class = C>, fillcolor="#e58139"] ;
612 -> 614 ;
615 [label=<gini = 0.0<br/>samples = 30<br/>value = [30, 0]<br/>class = C>, fillcolor="#e58139"] ;
609 -> 615 ;
616 [label=<PhoneService &le; 0.5<br/>gini = 0.188<br/>samples = 296<br/>value = [265, 31]<br/>class = C>, fillcolor="#e89050"] ;
460 -> 616 ;
617 [label=<PaymentMethod &le; 1.5<br/>gini = 0.346<br/>samples = 72<br/>value = [56, 16]<br/>class = C>, fillcolor="#eca572"] ;
616 -> 617 ;
618 [label=<gini = 0.0<br/>samples = 17<br/>value = [17, 0]<br/>class = C>, fillcolor="#e58139"] ;
617 -> 618 ;
619 [label=<tenure &le; 40.5<br/>gini = 0.413<br/>samples = 55<br/>value = [39, 16]<br/>class = C>, fillcolor="#f0b58a"] ;
617 -> 619 ;
620 [label=<Partner &le; 0.5<br/>gini = 0.494<br/>samples = 27<br/>value = [15, 12]<br/>class = C>, fillcolor="#fae6d7"] ;
619 -> 620 ;
621 [label=<PaymentMethod &le; 2.5<br/>gini = 0.432<br/>samples = 19<br/>value = [13, 6]<br/>class = C>, fillcolor="#f1bb94"] ;
620 -> 621 ;
622 [label=<gini = 0.0<br/>samples = 5<br/>value = [5, 0]<br/>class = C>, fillcolor="#e58139"] ;
621 -> 622 ;
623 [label=<OnlineBackup &le; 0.5<br/>gini = 0.49<br/>samples = 14<br/>value = [8, 6]<br/>class = C>, fillcolor="#f8e0ce"] ;
621 -> 623 ;
624 [label=<tenure &le; 28.5<br/>gini = 0.397<br/>samples = 11<br/>value = [8, 3]<br/>class = C>, fillcolor="#efb083"] ;
623 -> 624 ;
625 [label=<gini = 0.0<br/>samples = 6<br/>value = [6, 0]<br/>class = C>, fillcolor="#e58139"] ;
624 -> 625 ;
626 [label=<StreamingMovies &le; 0.5<br/>gini = 0.48<br/>samples = 5<br/>value = [2, 3]<br/>class = h>, fillcolor="#bddef6"] ;
624 -> 626 ;
627 [label=<gini = 0.0<br/>samples = 3<br/>value = [0, 3]<br/>class = h>, fillcolor="#399de5"] ;
626 -> 627 ;
628 [label=<gini = 0.0<br/>samples = 2<br/>value = [2, 0]<br/>class = C>, fillcolor="#e58139"] ;
626 -> 628 ;
629 [label=<gini = 0.0<br/>samples = 3<br/>value = [0, 3]<br/>class = h>, fillcolor="#399de5"] ;
623 -> 629 ;
630 [label=<tenure &le; 24.0<br/>gini = 0.375<br/>samples = 8<br/>value = [2, 6]<br/>class = h>, fillcolor="#7bbeee"] ;
620 -> 630 ;
631 [label=<gini = 0.0<br/>samples = 1<br/>value = [1, 0]<br/>class = C>, fillcolor="#e58139"] ;
630 -> 631 ;
632 [label=<TotalCharges &le; 1607.475<br/>gini = 0.245<br/>samples = 7<br/>value = [1, 6]<br/>class = h>, fillcolor="#5aade9"] ;
630 -> 632 ;
633 [label=<gini = 0.0<br/>samples = 6<br/>value = [0, 6]<br/>class = h>, fillcolor="#399de5"] ;
632 -> 633 ;
634 [label=<gini = 0.0<br/>samples = 1<br/>value = [1, 0]<br/>class = C>, fillcolor="#e58139"] ;
632 -> 634 ;
635 [label=<MonthlyCharges &le; 40.6<br/>gini = 0.245<br/>samples = 28<br/>value = [24, 4]<br/>class = C>, fillcolor="#e9965a"] ;
619 -> 635 ;
636 [label=<gini = 0.0<br/>samples = 13<br/>value = [13, 0]<br/>class = C>, fillcolor="#e58139"] ;
635 -> 636 ;
637 [label=<TotalCharges &le; 2163.275<br/>gini = 0.391<br/>samples = 15<br/>value = [11, 4]<br/>class = C>, fillcolor="#eeaf81"] ;
635 -> 637 ;
638 [label=<gini = 0.0<br/>samples = 2<br/>value = [0, 2]<br/>class = h>, fillcolor="#399de5"] ;
637 -> 638 ;
639 [label=<MonthlyCharges &le; 42.75<br/>gini = 0.26<br/>samples = 13<br/>value = [11, 2]<br/>class = C>, fillcolor="#ea985d"] ;
637 -> 639 ;
640 [label=<gini = 0.0<br/>samples = 1<br/>value = [0, 1]<br/>class = h>, fillcolor="#399de5"] ;
639 -> 640 ;
641 [label=<MonthlyCharges &le; 53.975<br/>gini = 0.153<br/>samples = 12<br/>value = [11, 1]<br/>class = C>, fillcolor="#e78c4b"] ;
639 -> 641 ;
642 [label=<gini = 0.0<br/>samples = 9<br/>value = [9, 0]<br/>class = C>, fillcolor="#e58139"] ;
641 -> 642 ;
643 [label=<OnlineBackup &le; 0.5<br/>gini = 0.444<br/>samples = 3<br/>value = [2, 1]<br/>class = C>, fillcolor="#f2c09c"] ;
641 -> 643 ;
644 [label=<gini = 0.0<br/>samples = 1<br/>value = [0, 1]<br/>class = h>, fillcolor="#399de5"] ;
643 -> 644 ;
645 [label=<gini = 0.0<br/>samples = 2<br/>value = [2, 0]<br/>class = C>, fillcolor="#e58139"] ;
643 -> 645 ;
646 [label=<TotalCharges &le; 648.5<br/>gini = 0.125<br/>samples = 224<br/>value = [209, 15]<br/>class = C>, fillcolor="#e78a47"] ;
616 -> 646 ;
647 [label=<gini = 0.0<br/>samples = 47<br/>value = [47, 0]<br/>class = C>, fillcolor="#e58139"] ;
646 -> 647 ;
648 [label=<TotalCharges &le; 662.65<br/>gini = 0.155<br/>samples = 177<br/>value = [162, 15]<br/>class = C>, fillcolor="#e78d4b"] ;
646 -> 648 ;
649 [label=<gini = 0.0<br/>samples = 1<br/>value = [0, 1]<br/>class = h>, fillcolor="#399de5"] ;
648 -> 649 ;
650 [label=<MonthlyCharges &le; 19.45<br/>gini = 0.146<br/>samples = 176<br/>value = [162, 14]<br/>class = C>, fillcolor="#e78c4a"] ;
648 -> 650 ;
651 [label=<TotalCharges &le; 942.725<br/>gini = 0.5<br/>samples = 2<br/>value = [1, 1]<br/>class = C>, fillcolor="#ffffff"] ;
650 -> 651 ;
652 [label=<gini = 0.0<br/>samples = 1<br/>value = [1, 0]<br/>class = C>, fillcolor="#e58139"] ;
651 -> 652 ;
653 [label=<gini = 0.0<br/>samples = 1<br/>value = [0, 1]<br/>class = h>, fillcolor="#399de5"] ;
651 -> 653 ;
654 [label=<Partner &le; 0.5<br/>gini = 0.138<br/>samples = 174<br/>value = [161, 13]<br/>class = C>, fillcolor="#e78b49"] ;
650 -> 654 ;
655 [label=<PaperlessBilling &le; 0.5<br/>gini = 0.215<br/>samples = 90<br/>value = [79, 11]<br/>class = C>, fillcolor="#e99355"] ;
654 -> 655 ;
656 [label=<tenure &le; 17.5<br/>gini = 0.102<br/>samples = 37<br/>value = [35, 2]<br/>class = C>, fillcolor="#e68844"] ;
655 -> 656 ;
657 [label=<StreamingMovies &le; 0.5<br/>gini = 0.5<br/>samples = 2<br/>value = [1, 1]<br/>class = C>, fillcolor="#ffffff"] ;
656 -> 657 ;
658 [label=<gini = 0.0<br/>samples = 1<br/>value = [0, 1]<br/>class = h>, fillcolor="#399de5"] ;
657 -> 658 ;
659 [label=<gini = 0.0<br/>samples = 1<br/>value = [1, 0]<br/>class = C>, fillcolor="#e58139"] ;
657 -> 659 ;
660 [label=<StreamingTV &le; 0.5<br/>gini = 0.056<br/>samples = 35<br/>value = [34, 1]<br/>class = C>, fillcolor="#e6853f"] ;
656 -> 660 ;
661 [label=<gini = 0.0<br/>samples = 30<br/>value = [30, 0]<br/>class = C>, fillcolor="#e58139"] ;
660 -> 661 ;
662 [label=<MonthlyCharges &le; 60.0<br/>gini = 0.32<br/>samples = 5<br/>value = [4, 1]<br/>class = C>, fillcolor="#eca06a"] ;
660 -> 662 ;
663 [label=<gini = 0.0<br/>samples = 1<br/>value = [0, 1]<br/>class = h>, fillcolor="#399de5"] ;
662 -> 663 ;
664 [label=<gini = 0.0<br/>samples = 4<br/>value = [4, 0]<br/>class = C>, fillcolor="#e58139"] ;
662 -> 664 ;
665 [label=<MonthlyCharges &le; 68.875<br/>gini = 0.282<br/>samples = 53<br/>value = [44, 9]<br/>class = C>, fillcolor="#ea9b61"] ;
655 -> 665 ;
666 [label=<StreamingMovies &le; 0.5<br/>gini = 0.349<br/>samples = 40<br/>value = [31, 9]<br/>class = C>, fillcolor="#eda672"] ;
665 -> 666 ;
667 [label=<TotalCharges &le; 2790.7<br/>gini = 0.278<br/>samples = 36<br/>value = [30, 6]<br/>class = C>, fillcolor="#ea9a61"] ;
666 -> 667 ;
668 [label=<OnlineSecurity &le; 0.5<br/>gini = 0.245<br/>samples = 35<br/>value = [30, 5]<br/>class = C>, fillcolor="#e9965a"] ;
667 -> 668 ;
669 [label=<TechSupport &le; 0.5<br/>gini = 0.095<br/>samples = 20<br/>value = [19, 1]<br/>class = C>, fillcolor="#e68843"] ;
668 -> 669 ;
670 [label=<gini = 0.0<br/>samples = 15<br/>value = [15, 0]<br/>class = C>, fillcolor="#e58139"] ;
669 -> 670 ;
671 [label=<DeviceProtection &le; 0.5<br/>gini = 0.32<br/>samples = 5<br/>value = [4, 1]<br/>class = C>, fillcolor="#eca06a"] ;
669 -> 671 ;
672 [label=<gini = 0.0<br/>samples = 4<br/>value = [4, 0]<br/>class = C>, fillcolor="#e58139"] ;
671 -> 672 ;
673 [label=<gini = 0.0<br/>samples = 1<br/>value = [0, 1]<br/>class = h>, fillcolor="#399de5"] ;
671 -> 673 ;
674 [label=<MonthlyCharges &le; 57.025<br/>gini = 0.391<br/>samples = 15<br/>value = [11, 4]<br/>class = C>, fillcolor="#eeaf81"] ;
668 -> 674 ;
675 [label=<tenure &le; 19.5<br/>gini = 0.494<br/>samples = 9<br/>value = [5, 4]<br/>class = C>, fillcolor="#fae6d7"] ;
674 -> 675 ;
676 [label=<gini = 0.0<br/>samples = 2<br/>value = [2, 0]<br/>class = C>, fillcolor="#e58139"] ;
675 -> 676 ;
677 [label=<TotalCharges &le; 1468.65<br/>gini = 0.49<br/>samples = 7<br/>value = [3, 4]<br/>class = h>, fillcolor="#cee6f8"] ;
675 -> 677 ;
678 [label=<gini = 0.0<br/>samples = 3<br/>value = [0, 3]<br/>class = h>, fillcolor="#399de5"] ;
677 -> 678 ;
679 [label=<Dependents &le; 0.5<br/>gini = 0.375<br/>samples = 4<br/>value = [3, 1]<br/>class = C>, fillcolor="#eeab7b"] ;
677 -> 679 ;
680 [label=<gini = 0.0<br/>samples = 3<br/>value = [3, 0]<br/>class = C>, fillcolor="#e58139"] ;
679 -> 680 ;
681 [label=<gini = 0.0<br/>samples = 1<br/>value = [0, 1]<br/>class = h>, fillcolor="#399de5"] ;
679 -> 681 ;
682 [label=<gini = 0.0<br/>samples = 6<br/>value = [6, 0]<br/>class = C>, fillcolor="#e58139"] ;
674 -> 682 ;
683 [label=<gini = 0.0<br/>samples = 1<br/>value = [0, 1]<br/>class = h>, fillcolor="#399de5"] ;
667 -> 683 ;
684 [label=<TechSupport &le; 0.5<br/>gini = 0.375<br/>samples = 4<br/>value = [1, 3]<br/>class = h>, fillcolor="#7bbeee"] ;
666 -> 684 ;
685 [label=<gini = 0.0<br/>samples = 3<br/>value = [0, 3]<br/>class = h>, fillcolor="#399de5"] ;
684 -> 685 ;
686 [label=<gini = 0.0<br/>samples = 1<br/>value = [1, 0]<br/>class = C>, fillcolor="#e58139"] ;
684 -> 686 ;
687 [label=<gini = 0.0<br/>samples = 13<br/>value = [13, 0]<br/>class = C>, fillcolor="#e58139"] ;
665 -> 687 ;
688 [label=<MonthlyCharges &le; 79.475<br/>gini = 0.046<br/>samples = 84<br/>value = [82, 2]<br/>class = C>, fillcolor="#e6843e"] ;
654 -> 688 ;
689 [label=<SeniorCitizen &le; 0.5<br/>gini = 0.025<br/>samples = 78<br/>value = [77, 1]<br/>class = C>, fillcolor="#e5833c"] ;
688 -> 689 ;
690 [label=<gini = 0.0<br/>samples = 71<br/>value = [71, 0]<br/>class = C>, fillcolor="#e58139"] ;
689 -> 690 ;
691 [label=<OnlineBackup &le; 0.5<br/>gini = 0.245<br/>samples = 7<br/>value = [6, 1]<br/>class = C>, fillcolor="#e9965a"] ;
689 -> 691 ;
692 [label=<gini = 0.0<br/>samples = 5<br/>value = [5, 0]<br/>class = C>, fillcolor="#e58139"] ;
691 -> 692 ;
693 [label=<TotalCharges &le; 2389.75<br/>gini = 0.5<br/>samples = 2<br/>value = [1, 1]<br/>class = C>, fillcolor="#ffffff"] ;
691 -> 693 ;
694 [label=<gini = 0.0<br/>samples = 1<br/>value = [0, 1]<br/>class = h>, fillcolor="#399de5"] ;
693 -> 694 ;
695 [label=<gini = 0.0<br/>samples = 1<br/>value = [1, 0]<br/>class = C>, fillcolor="#e58139"] ;
693 -> 695 ;
696 [label=<StreamingTV &le; 0.5<br/>gini = 0.278<br/>samples = 6<br/>value = [5, 1]<br/>class = C>, fillcolor="#ea9a61"] ;
688 -> 696 ;
697 [label=<gini = 0.0<br/>samples = 1<br/>value = [0, 1]<br/>class = h>, fillcolor="#399de5"] ;
696 -> 697 ;
698 [label=<gini = 0.0<br/>samples = 5<br/>value = [5, 0]<br/>class = C>, fillcolor="#e58139"] ;
696 -> 698 ;
699 [label=<tenure &le; 13.5<br/>gini = 0.495<br/>samples = 1742<br/>value = [787, 955]<br/>class = h>, fillcolor="#dceefa"] ;
1 -> 699 ;
700 [label=<TotalCharges &le; 120.0<br/>gini = 0.41<br/>samples = 794<br/>value = [229, 565]<br/>class = h>, fillcolor="#89c5f0"] ;
699 -> 700 ;
701 [label=<TechSupport &le; 0.5<br/>gini = 0.224<br/>samples = 187<br/>value = [24, 163]<br/>class = h>, fillcolor="#56abe9"] ;
700 -> 701 ;
702 [label=<MonthlyCharges &le; 69.875<br/>gini = 0.197<br/>samples = 181<br/>value = [20, 161]<br/>class = h>, fillcolor="#52a9e8"] ;
701 -> 702 ;
703 [label=<gini = 0.0<br/>samples = 32<br/>value = [0, 32]<br/>class = h>, fillcolor="#399de5"] ;
702 -> 703 ;
704 [label=<TotalCharges &le; 71.3<br/>gini = 0.232<br/>samples = 149<br/>value = [20, 129]<br/>class = h>, fillcolor="#58ace9"] ;
702 -> 704 ;
705 [label=<PaymentMethod &le; 2.0<br/>gini = 0.375<br/>samples = 36<br/>value = [9, 27]<br/>class = h>, fillcolor="#7bbeee"] ;
704 -> 705 ;
706 [label=<MonthlyCharges &le; 71.2<br/>gini = 0.353<br/>samples = 35<br/>value = [8, 27]<br/>class = h>, fillcolor="#74baed"] ;
705 -> 706 ;
707 [label=<Partner &le; 0.5<br/>gini = 0.327<br/>samples = 34<br/>value = [7, 27]<br/>class = h>, fillcolor="#6cb6ec"] ;
706 -> 707 ;
708 [label=<TotalCharges &le; 70.175<br/>gini = 0.393<br/>samples = 26<br/>value = [7, 19]<br/>class = h>, fillcolor="#82c1ef"] ;
707 -> 708 ;
709 [label=<PaperlessBilling &le; 0.5<br/>gini = 0.298<br/>samples = 11<br/>value = [2, 9]<br/>class = h>, fillcolor="#65b3eb"] ;
708 -> 709 ;
710 [label=<gini = 0.0<br/>samples = 1<br/>value = [1, 0]<br/>class = C>, fillcolor="#e58139"] ;
709 -> 710 ;
711 [label=<TotalCharges &le; 69.925<br/>gini = 0.18<br/>samples = 10<br/>value = [1, 9]<br/>class = h>, fillcolor="#4fa8e8"] ;
709 -> 711 ;
712 [label=<gini = 0.444<br/>samples = 3<br/>value = [1, 2]<br/>class = h>, fillcolor="#9ccef2"] ;
711 -> 712 ;
713 [label=<gini = 0.0<br/>samples = 7<br/>value = [0, 7]<br/>class = h>, fillcolor="#399de5"] ;
711 -> 713 ;
714 [label=<TotalCharges &le; 70.25<br/>gini = 0.444<br/>samples = 15<br/>value = [5, 10]<br/>class = h>, fillcolor="#9ccef2"] ;
708 -> 714 ;
715 [label=<gini = 0.0<br/>samples = 1<br/>value = [1, 0]<br/>class = C>, fillcolor="#e58139"] ;
714 -> 715 ;
716 [label=<PaymentMethod &le; 0.5<br/>gini = 0.408<br/>samples = 14<br/>value = [4, 10]<br/>class = h>, fillcolor="#88c4ef"] ;
714 -> 716 ;
717 [label=<TotalCharges &le; 70.375<br/>gini = 0.245<br/>samples = 7<br/>value = [1, 6]<br/>class = h>, fillcolor="#5aade9"] ;
716 -> 717 ;
718 [label=<MonthlyCharges &le; 70.325<br/>gini = 0.444<br/>samples = 3<br/>value = [1, 2]<br/>class = h>, fillcolor="#9ccef2"] ;
717 -> 718 ;
719 [label=<gini = 0.0<br/>samples = 2<br/>value = [0, 2]<br/>class = h>, fillcolor="#399de5"] ;
718 -> 719 ;
720 [label=<gini = 0.0<br/>samples = 1<br/>value = [1, 0]<br/>class = C>, fillcolor="#e58139"] ;
718 -> 720 ;
721 [label=<gini = 0.0<br/>samples = 4<br/>value = [0, 4]<br/>class = h>, fillcolor="#399de5"] ;
717 -> 721 ;
722 [label=<PaperlessBilling &le; 0.5<br/>gini = 0.49<br/>samples = 7<br/>value = [3, 4]<br/>class = h>, fillcolor="#cee6f8"] ;
716 -> 722 ;
723 [label=<MonthlyCharges &le; 70.925<br/>gini = 0.375<br/>samples = 4<br/>value = [1, 3]<br/>class = h>, fillcolor="#7bbeee"] ;
722 -> 723 ;
724 [label=<gini = 0.0<br/>samples = 2<br/>value = [0, 2]<br/>class = h>, fillcolor="#399de5"] ;
723 -> 724 ;
725 [label=<gini = 0.5<br/>samples = 2<br/>value = [1, 1]<br/>class = C>, fillcolor="#ffffff"] ;
723 -> 725 ;
726 [label=<Dependents &le; 0.5<br/>gini = 0.444<br/>samples = 3<br/>value = [2, 1]<br/>class = C>, fillcolor="#f2c09c"] ;
722 -> 726 ;
727 [label=<gini = 0.0<br/>samples = 2<br/>value = [2, 0]<br/>class = C>, fillcolor="#e58139"] ;
726 -> 727 ;
728 [label=<gini = 0.0<br/>samples = 1<br/>value = [0, 1]<br/>class = h>, fillcolor="#399de5"] ;
726 -> 728 ;
729 [label=<gini = 0.0<br/>samples = 8<br/>value = [0, 8]<br/>class = h>, fillcolor="#399de5"] ;
707 -> 729 ;
730 [label=<gini = 0.0<br/>samples = 1<br/>value = [1, 0]<br/>class = C>, fillcolor="#e58139"] ;
706 -> 730 ;
731 [label=<gini = 0.0<br/>samples = 1<br/>value = [1, 0]<br/>class = C>, fillcolor="#e58139"] ;
705 -> 731 ;
732 [label=<Dependents &le; 0.5<br/>gini = 0.176<br/>samples = 113<br/>value = [11, 102]<br/>class = h>, fillcolor="#4ea8e8"] ;
704 -> 732 ;
733 [label=<OnlineBackup &le; 0.5<br/>gini = 0.134<br/>samples = 97<br/>value = [7, 90]<br/>class = h>, fillcolor="#48a5e7"] ;
732 -> 733 ;
734 [label=<TotalCharges &le; 72.825<br/>gini = 0.093<br/>samples = 82<br/>value = [4, 78]<br/>class = h>, fillcolor="#43a2e6"] ;
733 -> 734 ;
735 [label=<MonthlyCharges &le; 71.875<br/>gini = 0.32<br/>samples = 5<br/>value = [1, 4]<br/>class = h>, fillcolor="#6ab6ec"] ;
734 -> 735 ;
736 [label=<gini = 0.0<br/>samples = 4<br/>value = [0, 4]<br/>class = h>, fillcolor="#399de5"] ;
735 -> 736 ;
737 [label=<gini = 0.0<br/>samples = 1<br/>value = [1, 0]<br/>class = C>, fillcolor="#e58139"] ;
735 -> 737 ;
738 [label=<SeniorCitizen &le; 0.5<br/>gini = 0.075<br/>samples = 77<br/>value = [3, 74]<br/>class = h>, fillcolor="#41a1e6"] ;
734 -> 738 ;
739 [label=<MultipleLines &le; 0.5<br/>gini = 0.103<br/>samples = 55<br/>value = [3, 52]<br/>class = h>, fillcolor="#44a3e6"] ;
738 -> 739 ;
740 [label=<TotalCharges &le; 88.8<br/>gini = 0.054<br/>samples = 36<br/>value = [1, 35]<br/>class = h>, fillcolor="#3fa0e6"] ;
739 -> 740 ;
741 [label=<gini = 0.0<br/>samples = 28<br/>value = [0, 28]<br/>class = h>, fillcolor="#399de5"] ;
740 -> 741 ;
742 [label=<MonthlyCharges &le; 89.4<br/>gini = 0.219<br/>samples = 8<br/>value = [1, 7]<br/>class = h>, fillcolor="#55abe9"] ;
740 -> 742 ;
743 [label=<gini = 0.0<br/>samples = 1<br/>value = [1, 0]<br/>class = C>, fillcolor="#e58139"] ;
742 -> 743 ;
744 [label=<gini = 0.0<br/>samples = 7<br/>value = [0, 7]<br/>class = h>, fillcolor="#399de5"] ;
742 -> 744 ;
745 [label=<MonthlyCharges &le; 84.625<br/>gini = 0.188<br/>samples = 19<br/>value = [2, 17]<br/>class = h>, fillcolor="#50a9e8"] ;
739 -> 745 ;
746 [label=<StreamingTV &le; 0.5<br/>gini = 0.278<br/>samples = 12<br/>value = [2, 10]<br/>class = h>, fillcolor="#61b1ea"] ;
745 -> 746 ;
747 [label=<MonthlyCharges &le; 75.075<br/>gini = 0.165<br/>samples = 11<br/>value = [1, 10]<br/>class = h>, fillcolor="#4da7e8"] ;
746 -> 747 ;
748 [label=<gini = 0.0<br/>samples = 6<br/>value = [0, 6]<br/>class = h>, fillcolor="#399de5"] ;
747 -> 748 ;
749 [label=<MonthlyCharges &le; 75.2<br/>gini = 0.32<br/>samples = 5<br/>value = [1, 4]<br/>class = h>, fillcolor="#6ab6ec"] ;
747 -> 749 ;
750 [label=<gini = 0.0<br/>samples = 1<br/>value = [1, 0]<br/>class = C>, fillcolor="#e58139"] ;
749 -> 750 ;
751 [label=<gini = 0.0<br/>samples = 4<br/>value = [0, 4]<br/>class = h>, fillcolor="#399de5"] ;
749 -> 751 ;
752 [label=<gini = 0.0<br/>samples = 1<br/>value = [1, 0]<br/>class = C>, fillcolor="#e58139"] ;
746 -> 752 ;
753 [label=<gini = 0.0<br/>samples = 7<br/>value = [0, 7]<br/>class = h>, fillcolor="#399de5"] ;
745 -> 753 ;
754 [label=<gini = 0.0<br/>samples = 22<br/>value = [0, 22]<br/>class = h>, fillcolor="#399de5"] ;
738 -> 754 ;
755 [label=<PaperlessBilling &le; 0.5<br/>gini = 0.32<br/>samples = 15<br/>value = [3, 12]<br/>class = h>, fillcolor="#6ab6ec"] ;
733 -> 755 ;
756 [label=<StreamingTV &le; 0.5<br/>gini = 0.5<br/>samples = 2<br/>value = [1, 1]<br/>class = C>, fillcolor="#ffffff"] ;
755 -> 756 ;
757 [label=<gini = 0.0<br/>samples = 1<br/>value = [1, 0]<br/>class = C>, fillcolor="#e58139"] ;
756 -> 757 ;
758 [label=<gini = 0.0<br/>samples = 1<br/>value = [0, 1]<br/>class = h>, fillcolor="#399de5"] ;
756 -> 758 ;
759 [label=<MonthlyCharges &le; 77.775<br/>gini = 0.26<br/>samples = 13<br/>value = [2, 11]<br/>class = h>, fillcolor="#5dafea"] ;
755 -> 759 ;
760 [label=<gini = 0.0<br/>samples = 6<br/>value = [0, 6]<br/>class = h>, fillcolor="#399de5"] ;
759 -> 760 ;
761 [label=<TotalCharges &le; 85.5<br/>gini = 0.408<br/>samples = 7<br/>value = [2, 5]<br/>class = h>, fillcolor="#88c4ef"] ;
759 -> 761 ;
762 [label=<StreamingMovies &le; 0.5<br/>gini = 0.5<br/>samples = 4<br/>value = [2, 2]<br/>class = C>, fillcolor="#ffffff"] ;
761 -> 762 ;
763 [label=<PaymentMethod &le; 0.5<br/>gini = 0.444<br/>samples = 3<br/>value = [1, 2]<br/>class = h>, fillcolor="#9ccef2"] ;
762 -> 763 ;
764 [label=<gini = 0.0<br/>samples = 2<br/>value = [0, 2]<br/>class = h>, fillcolor="#399de5"] ;
763 -> 764 ;
765 [label=<gini = 0.0<br/>samples = 1<br/>value = [1, 0]<br/>class = C>, fillcolor="#e58139"] ;
763 -> 765 ;
766 [label=<gini = 0.0<br/>samples = 1<br/>value = [1, 0]<br/>class = C>, fillcolor="#e58139"] ;
762 -> 766 ;
767 [label=<gini = 0.0<br/>samples = 3<br/>value = [0, 3]<br/>class = h>, fillcolor="#399de5"] ;
761 -> 767 ;
768 [label=<PaymentMethod &le; 2.0<br/>gini = 0.375<br/>samples = 16<br/>value = [4, 12]<br/>class = h>, fillcolor="#7bbeee"] ;
732 -> 768 ;
769 [label=<TotalCharges &le; 80.525<br/>gini = 0.32<br/>samples = 15<br/>value = [3, 12]<br/>class = h>, fillcolor="#6ab6ec"] ;
768 -> 769 ;
770 [label=<gini = 0.0<br/>samples = 8<br/>value = [0, 8]<br/>class = h>, fillcolor="#399de5"] ;
769 -> 770 ;
771 [label=<TotalCharges &le; 90.475<br/>gini = 0.49<br/>samples = 7<br/>value = [3, 4]<br/>class = h>, fillcolor="#cee6f8"] ;
769 -> 771 ;
772 [label=<PaymentMethod &le; 0.5<br/>gini = 0.375<br/>samples = 4<br/>value = [3, 1]<br/>class = C>, fillcolor="#eeab7b"] ;
771 -> 772 ;
773 [label=<gini = 0.0<br/>samples = 3<br/>value = [3, 0]<br/>class = C>, fillcolor="#e58139"] ;
772 -> 773 ;
774 [label=<gini = 0.0<br/>samples = 1<br/>value = [0, 1]<br/>class = h>, fillcolor="#399de5"] ;
772 -> 774 ;
775 [label=<gini = 0.0<br/>samples = 3<br/>value = [0, 3]<br/>class = h>, fillcolor="#399de5"] ;
771 -> 775 ;
776 [label=<gini = 0.0<br/>samples = 1<br/>value = [1, 0]<br/>class = C>, fillcolor="#e58139"] ;
768 -> 776 ;
777 [label=<Partner &le; 0.5<br/>gini = 0.444<br/>samples = 6<br/>value = [4, 2]<br/>class = C>, fillcolor="#f2c09c"] ;
701 -> 777 ;
778 [label=<TotalCharges &le; 75.3<br/>gini = 0.32<br/>samples = 5<br/>value = [4, 1]<br/>class = C>, fillcolor="#eca06a"] ;
777 -> 778 ;
779 [label=<gini = 0.0<br/>samples = 2<br/>value = [2, 0]<br/>class = C>, fillcolor="#e58139"] ;
778 -> 779 ;
780 [label=<TotalCharges &le; 79.65<br/>gini = 0.444<br/>samples = 3<br/>value = [2, 1]<br/>class = C>, fillcolor="#f2c09c"] ;
778 -> 780 ;
781 [label=<gini = 0.0<br/>samples = 1<br/>value = [0, 1]<br/>class = h>, fillcolor="#399de5"] ;
780 -> 781 ;
782 [label=<gini = 0.0<br/>samples = 2<br/>value = [2, 0]<br/>class = C>, fillcolor="#e58139"] ;
780 -> 782 ;
783 [label=<gini = 0.0<br/>samples = 1<br/>value = [0, 1]<br/>class = h>, fillcolor="#399de5"] ;
777 -> 783 ;
784 [label=<MonthlyCharges &le; 78.925<br/>gini = 0.447<br/>samples = 607<br/>value = [205, 402]<br/>class = h>, fillcolor="#9ecff2"] ;
700 -> 784 ;
785 [label=<TotalCharges &le; 339.85<br/>gini = 0.497<br/>samples = 205<br/>value = [94, 111]<br/>class = h>, fillcolor="#e1f0fb"] ;
784 -> 785 ;
786 [label=<MultipleLines &le; 0.5<br/>gini = 0.455<br/>samples = 100<br/>value = [35, 65]<br/>class = h>, fillcolor="#a4d2f3"] ;
785 -> 786 ;
787 [label=<TotalCharges &le; 322.5<br/>gini = 0.497<br/>samples = 63<br/>value = [29, 34]<br/>class = h>, fillcolor="#e2f1fb"] ;
786 -> 787 ;
788 [label=<gender &le; 0.5<br/>gini = 0.5<br/>samples = 58<br/>value = [29, 29]<br/>class = C>, fillcolor="#ffffff"] ;
787 -> 788 ;
789 [label=<MonthlyCharges &le; 75.525<br/>gini = 0.461<br/>samples = 25<br/>value = [16, 9]<br/>class = C>, fillcolor="#f4c8a8"] ;
788 -> 789 ;
790 [label=<Partner &le; 0.5<br/>gini = 0.397<br/>samples = 22<br/>value = [16, 6]<br/>class = C>, fillcolor="#efb083"] ;
789 -> 790 ;
791 [label=<MonthlyCharges &le; 70.25<br/>gini = 0.457<br/>samples = 17<br/>value = [11, 6]<br/>class = C>, fillcolor="#f3c6a5"] ;
790 -> 791 ;
792 [label=<MonthlyCharges &le; 69.625<br/>gini = 0.375<br/>samples = 4<br/>value = [1, 3]<br/>class = h>, fillcolor="#7bbeee"] ;
791 -> 792 ;
793 [label=<gini = 0.0<br/>samples = 1<br/>value = [1, 0]<br/>class = C>, fillcolor="#e58139"] ;
792 -> 793 ;
794 [label=<gini = 0.0<br/>samples = 3<br/>value = [0, 3]<br/>class = h>, fillcolor="#399de5"] ;
792 -> 794 ;
795 [label=<MonthlyCharges &le; 70.675<br/>gini = 0.355<br/>samples = 13<br/>value = [10, 3]<br/>class = C>, fillcolor="#eda774"] ;
791 -> 795 ;
796 [label=<gini = 0.0<br/>samples = 3<br/>value = [3, 0]<br/>class = C>, fillcolor="#e58139"] ;
795 -> 796 ;
